digraph Tree {
node [shape=box, style="filled, rounded", color="black", fontname="helvetica"] ;
edge [fontname="helvetica"] ;
0 [label=<physic &le; -2.082<br/>gini = 0.86<br/>samples = 14808<br/>value = [3594, 2077, 2569, 1548, 1112, 627, 812, 1064, 618<br/>787]<br/>class = CB>, fillcolor="#fdf4ee"] ;
1 [label=<gini = 0.0<br/>samples = 1548<br/>value = [0, 0, 0, 1548, 0, 0, 0, 0, 0, 0]<br/>class = GK>, fillcolor="#39e55e"] ;
0 -> 1 [labeldistance=2.5, labelangle=45, headlabel="True"] ;
2 [label=<defending &le; 0.177<br/>gini = 0.839<br/>samples = 13260<br/>value = [3594.0, 2077.0, 2569.0, 0.0, 1112.0, 627.0, 812.0<br/>1064.0, 618.0, 787.0]<br/>class = CB>, fillcolor="#fdf3ec"] ;
0 -> 2 [labeldistance=2.5, labelangle=-45, headlabel="False"] ;
3 [label=<weight_kg &le; 0.218<br/>gini = 0.785<br/>samples = 5515<br/>value = [28.0, 2010.0, 1023.0, 0.0, 24.0, 601.0, 636.0, 22.0<br/>542.0, 629.0]<br/>class = CF>, fillcolor="#f9f9d3"] ;
2 -> 3 ;
4 [label=<defending &le; -0.765<br/>gini = 0.82<br/>samples = 3943<br/>value = [20, 987, 902, 0, 24, 453, 554, 19, 433, 551]<br/>class = CF>, fillcolor="#fefef9"] ;
3 -> 4 ;
5 [label=<skill_cumulative &le; -0.174<br/>gini = 0.731<br/>samples = 1239<br/>value = [0, 552, 66, 0, 0, 227, 133, 0, 122, 139]<br/>class = CF>, fillcolor="#f6f7bf"] ;
4 -> 5 ;
6 [label=<power_cumulative &le; -1.003<br/>gini = 0.501<br/>samples = 437<br/>value = [0, 301, 5, 0, 0, 49, 24, 0, 23, 35]<br/>class = CF>, fillcolor="#ecee7e"] ;
5 -> 6 ;
7 [label=<defending &le; -1.109<br/>gini = 0.784<br/>samples = 64<br/>value = [0, 10, 2, 0, 0, 8, 14, 0, 9, 21]<br/>class = RM>, fillcolor="#fbe3e8"] ;
6 -> 7 ;
8 [label=<goalkeeping_cumulative &le; -0.345<br/>gini = 0.292<br/>samples = 12<br/>value = [0, 10, 0, 0, 0, 1, 0, 0, 1, 0]<br/>class = CF>, fillcolor="#e7ea5d"] ;
7 -> 8 ;
9 [label=<movement_cumulative &le; -0.3<br/>gini = 0.165<br/>samples = 11<br/>value = [0, 10, 0, 0, 0, 1, 0, 0, 0, 0]<br/>class = CF>, fillcolor="#e5e84d"] ;
8 -> 9 ;
10 [label=<skill_cumulative &le; -0.836<br/>gini = 0.5<br/>samples = 2<br/>value = [0, 1, 0, 0, 0, 1, 0, 0, 0, 0]<br/>class = CF>, fillcolor="#ffffff"] ;
9 -> 10 ;
11 [label=<gini = 0.0<br/>samples = 1<br/>value = [0, 1, 0, 0, 0, 0, 0, 0, 0, 0]<br/>class = CF>, fillcolor="#e2e539"] ;
10 -> 11 ;
12 [label=<gini = 0.0<br/>samples = 1<br/>value = [0, 0, 0, 0, 0, 1, 0, 0, 0, 0]<br/>class = LF>, fillcolor="#399de5"] ;
10 -> 12 ;
13 [label=<gini = 0.0<br/>samples = 9<br/>value = [0, 9, 0, 0, 0, 0, 0, 0, 0, 0]<br/>class = CF>, fillcolor="#e2e539"] ;
9 -> 13 ;
14 [label=<gini = 0.0<br/>samples = 1<br/>value = [0, 0, 0, 0, 0, 0, 0, 0, 1, 0]<br/>class = RF>, fillcolor="#e539c0"] ;
8 -> 14 ;
15 [label=<skill_cumulative &le; -0.233<br/>gini = 0.721<br/>samples = 52<br/>value = [0, 0, 2, 0, 0, 7, 14, 0, 8, 21]<br/>class = RM>, fillcolor="#fadbe0"] ;
7 -> 15 ;
16 [label=<preferred_foot_Right &le; -0.588<br/>gini = 0.678<br/>samples = 43<br/>value = [0, 0, 1, 0, 0, 5, 8, 0, 8, 21]<br/>class = RM>, fillcolor="#f5b5c1"] ;
15 -> 16 ;
17 [label=<defending &le; -0.929<br/>gini = 0.708<br/>samples = 12<br/>value = [0, 0, 1, 0, 0, 4, 4, 0, 0, 3]<br/>class = LF>, fillcolor="#ffffff"] ;
16 -> 17 ;
18 [label=<gini = 0.0<br/>samples = 4<br/>value = [0, 0, 0, 0, 0, 4, 0, 0, 0, 0]<br/>class = LF>, fillcolor="#399de5"] ;
17 -> 18 ;
19 [label=<gini = 0.594<br/>samples = 8<br/>value = [0, 0, 1, 0, 0, 0, 4, 0, 0, 3]<br/>class = LM>, fillcolor="#d8d7fa"] ;
17 -> 19 ;
20 [label=<power_cumulative &le; -1.383<br/>gini = 0.579<br/>samples = 31<br/>value = [0, 0, 0, 0, 0, 1, 4, 0, 8, 18]<br/>class = RM>, fillcolor="#f4a9b6"] ;
16 -> 20 ;
21 [label=<gini = 0.672<br/>samples = 16<br/>value = [0, 0, 0, 0, 0, 1, 3, 0, 7, 5]<br/>class = RF>, fillcolor="#fadbf4"] ;
20 -> 21 ;
22 [label=<gini = 0.24<br/>samples = 15<br/>value = [0, 0, 0, 0, 0, 0, 1, 0, 1, 13]<br/>class = RM>, fillcolor="#e95570"] ;
20 -> 22 ;
23 [label=<mentality_cumulative &le; -0.579<br/>gini = 0.494<br/>samples = 9<br/>value = [0, 0, 1, 0, 0, 2, 6, 0, 0, 0]<br/>class = LM>, fillcolor="#908ef0"] ;
15 -> 23 ;
24 [label=<potential &le; -1.583<br/>gini = 0.245<br/>samples = 7<br/>value = [0, 0, 0, 0, 0, 1, 6, 0, 0, 0]<br/>class = LM>, fillcolor="#5d5ae9"] ;
23 -> 24 ;
25 [label=<gini = 0.0<br/>samples = 1<br/>value = [0, 0, 0, 0, 0, 1, 0, 0, 0, 0]<br/>class = LF>, fillcolor="#399de5"] ;
24 -> 25 ;
26 [label=<gini = 0.0<br/>samples = 6<br/>value = [0, 0, 0, 0, 0, 0, 6, 0, 0, 0]<br/>class = LM>, fillcolor="#3c39e5"] ;
24 -> 26 ;
27 [label=<height_cm &le; -1.402<br/>gini = 0.5<br/>samples = 2<br/>value = [0, 0, 1, 0, 0, 1, 0, 0, 0, 0]<br/>class = CM>, fillcolor="#ffffff"] ;
23 -> 27 ;
28 [label=<gini = 0.0<br/>samples = 1<br/>value = [0, 0, 0, 0, 0, 1, 0, 0, 0, 0]<br/>class = LF>, fillcolor="#399de5"] ;
27 -> 28 ;
29 [label=<gini = 0.0<br/>samples = 1<br/>value = [0, 0, 1, 0, 0, 0, 0, 0, 0, 0]<br/>class = CM>, fillcolor="#7be539"] ;
27 -> 29 ;
30 [label=<attacking_cumulative &le; 0.538<br/>gini = 0.376<br/>samples = 373<br/>value = [0.0, 291.0, 3.0, 0.0, 0.0, 41.0, 10.0, 0.0, 14.0<br/>14.0]<br/>class = CF>, fillcolor="#e9eb6a"] ;
6 -> 30 ;
31 [label=<power_cumulative &le; 1.367<br/>gini = 0.29<br/>samples = 341<br/>value = [0.0, 286.0, 3.0, 0.0, 0.0, 17.0, 10.0, 0.0, 12.0<br/>13.0]<br/>class = CF>, fillcolor="#e7e95b"] ;
30 -> 31 ;
32 [label=<movement_cumulative &le; 0.271<br/>gini = 0.275<br/>samples = 337<br/>value = [0, 286, 3, 0, 0, 13, 10, 0, 12, 13]<br/>class = CF>, fillcolor="#e7e958"] ;
31 -> 32 ;
33 [label=<attacking_cumulative &le; 0.456<br/>gini = 0.166<br/>samples = 240<br/>value = [0, 219, 3, 0, 0, 7, 2, 0, 5, 4]<br/>class = CF>, fillcolor="#e5e74b"] ;
32 -> 33 ;
34 [label=<gini = 0.159<br/>samples = 239<br/>value = [0.0, 219.0, 3.0, 0.0, 0.0, 7.0, 2.0, 0.0, 5.0, 3.0]<br/>class = CF>, fillcolor="#e4e74a"] ;
33 -> 34 ;
35 [label=<gini = 0.0<br/>samples = 1<br/>value = [0, 0, 0, 0, 0, 0, 0, 0, 0, 1]<br/>class = RM>, fillcolor="#e53958"] ;
33 -> 35 ;
36 [label=<power_cumulative &le; -0.203<br/>gini = 0.498<br/>samples = 97<br/>value = [0.0, 67.0, 0.0, 0.0, 0.0, 6.0, 8.0, 0.0, 7.0, 9.0]<br/>class = CF>, fillcolor="#ecee7c"] ;
32 -> 36 ;
37 [label=<gini = 0.697<br/>samples = 44<br/>value = [0, 21, 0, 0, 0, 4, 8, 0, 4, 7]<br/>class = CF>, fillcolor="#f5f6b8"] ;
36 -> 37 ;
38 [label=<gini = 0.241<br/>samples = 53<br/>value = [0, 46, 0, 0, 0, 2, 0, 0, 3, 2]<br/>class = CF>, fillcolor="#e6e955"] ;
36 -> 38 ;
39 [label=<gini = 0.0<br/>samples = 4<br/>value = [0, 0, 0, 0, 0, 4, 0, 0, 0, 0]<br/>class = LF>, fillcolor="#399de5"] ;
31 -> 39 ;
40 [label=<attacking_cumulative &le; 0.692<br/>gini = 0.408<br/>samples = 32<br/>value = [0, 5, 0, 0, 0, 24, 0, 0, 2, 1]<br/>class = LF>, fillcolor="#74baed"] ;
30 -> 40 ;
41 [label=<height_cm &le; -0.234<br/>gini = 0.569<br/>samples = 12<br/>value = [0, 5, 0, 0, 0, 6, 0, 0, 0, 1]<br/>class = LF>, fillcolor="#e3f1fb"] ;
40 -> 41 ;
42 [label=<potential &le; -0.716<br/>gini = 0.531<br/>samples = 8<br/>value = [0, 5, 0, 0, 0, 2, 0, 0, 0, 1]<br/>class = CF>, fillcolor="#f0f29c"] ;
41 -> 42 ;
43 [label=<gini = 0.0<br/>samples = 2<br/>value = [0, 0, 0, 0, 0, 2, 0, 0, 0, 0]<br/>class = LF>, fillcolor="#399de5"] ;
42 -> 43 ;
44 [label=<gini = 0.278<br/>samples = 6<br/>value = [0, 5, 0, 0, 0, 0, 0, 0, 0, 1]<br/>class = CF>, fillcolor="#e8ea61"] ;
42 -> 44 ;
45 [label=<gini = 0.0<br/>samples = 4<br/>value = [0, 0, 0, 0, 0, 4, 0, 0, 0, 0]<br/>class = LF>, fillcolor="#399de5"] ;
41 -> 45 ;
46 [label=<power_cumulative &le; -0.474<br/>gini = 0.18<br/>samples = 20<br/>value = [0, 0, 0, 0, 0, 18, 0, 0, 2, 0]<br/>class = LF>, fillcolor="#4fa8e8"] ;
40 -> 46 ;
47 [label=<gini = 0.0<br/>samples = 1<br/>value = [0, 0, 0, 0, 0, 0, 0, 0, 1, 0]<br/>class = RF>, fillcolor="#e539c0"] ;
46 -> 47 ;
48 [label=<defending &le; -0.929<br/>gini = 0.1<br/>samples = 19<br/>value = [0, 0, 0, 0, 0, 18, 0, 0, 1, 0]<br/>class = LF>, fillcolor="#44a2e6"] ;
46 -> 48 ;
49 [label=<gini = 0.0<br/>samples = 16<br/>value = [0, 0, 0, 0, 0, 16, 0, 0, 0, 0]<br/>class = LF>, fillcolor="#399de5"] ;
48 -> 49 ;
50 [label=<gini = 0.444<br/>samples = 3<br/>value = [0, 0, 0, 0, 0, 2, 0, 0, 1, 0]<br/>class = LF>, fillcolor="#9ccef2"] ;
48 -> 50 ;
51 [label=<power_cumulative &le; -0.281<br/>gini = 0.796<br/>samples = 802<br/>value = [0.0, 251.0, 61.0, 0.0, 0.0, 178.0, 109.0, 0.0, 99.0<br/>104.0]<br/>class = CF>, fillcolor="#fcfce8"] ;
5 -> 51 ;
52 [label=<attacking_cumulative &le; 0.22<br/>gini = 0.811<br/>samples = 247<br/>value = [0.0, 24.0, 21.0, 0.0, 0.0, 38.0, 50.0, 0.0, 52.0<br/>62.0]<br/>class = RM>, fillcolor="#fef5f6"] ;
51 -> 52 ;
53 [label=<defending &le; -1.064<br/>gini = 0.639<br/>samples = 45<br/>value = [0, 3, 8, 0, 0, 4, 4, 0, 1, 25]<br/>class = RM>, fillcolor="#f3a4b2"] ;
52 -> 53 ;
54 [label=<power_cumulative &le; -1.529<br/>gini = 0.611<br/>samples = 6<br/>value = [0, 3, 2, 0, 0, 0, 1, 0, 0, 0]<br/>class = CF>, fillcolor="#f8f8ce"] ;
53 -> 54 ;
55 [label=<gini = 0.0<br/>samples = 2<br/>value = [0, 0, 2, 0, 0, 0, 0, 0, 0, 0]<br/>class = CM>, fillcolor="#7be539"] ;
54 -> 55 ;
56 [label=<skill_cumulative &le; -0.088<br/>gini = 0.375<br/>samples = 4<br/>value = [0, 3, 0, 0, 0, 0, 1, 0, 0, 0]<br/>class = CF>, fillcolor="#ecee7b"] ;
54 -> 56 ;
57 [label=<gini = 0.0<br/>samples = 1<br/>value = [0, 0, 0, 0, 0, 0, 1, 0, 0, 0]<br/>class = LM>, fillcolor="#3c39e5"] ;
56 -> 57 ;
58 [label=<gini = 0.0<br/>samples = 3<br/>value = [0, 3, 0, 0, 0, 0, 0, 0, 0, 0]<br/>class = CF>, fillcolor="#e2e539"] ;
56 -> 58 ;
59 [label=<mentality_cumulative &le; -0.592<br/>gini = 0.548<br/>samples = 39<br/>value = [0.0, 0.0, 6.0, 0.0, 0.0, 4.0, 3.0, 0.0, 1.0, 25.0]<br/>class = RM>, fillcolor="#f08d9f"] ;
53 -> 59 ;
60 [label=<preferred_foot_Right &le; -0.588<br/>gini = 0.376<br/>samples = 27<br/>value = [0, 0, 0, 0, 0, 3, 2, 0, 1, 21]<br/>class = RM>, fillcolor="#ec6a82"] ;
59 -> 60 ;
61 [label=<gini = 0.691<br/>samples = 9<br/>value = [0, 0, 0, 0, 0, 2, 2, 0, 1, 4]<br/>class = RM>, fillcolor="#f8c6cf"] ;
60 -> 61 ;
62 [label=<gini = 0.105<br/>samples = 18<br/>value = [0, 0, 0, 0, 0, 1, 0, 0, 0, 17]<br/>class = RM>, fillcolor="#e74562"] ;
60 -> 62 ;
63 [label=<physic &le; -0.497<br/>gini = 0.625<br/>samples = 12<br/>value = [0, 0, 6, 0, 0, 1, 1, 0, 0, 4]<br/>class = CM>, fillcolor="#def8ce"] ;
59 -> 63 ;
64 [label=<gini = 0.406<br/>samples = 8<br/>value = [0, 0, 6, 0, 0, 1, 1, 0, 0, 0]<br/>class = CM>, fillcolor="#a1ec72"] ;
63 -> 64 ;
65 [label=<gini = 0.0<br/>samples = 4<br/>value = [0, 0, 0, 0, 0, 0, 0, 0, 0, 4]<br/>class = RM>, fillcolor="#e53958"] ;
63 -> 65 ;
66 [label=<mentality_cumulative &le; 0.402<br/>gini = 0.808<br/>samples = 202<br/>value = [0, 21, 13, 0, 0, 34, 46, 0, 51, 37]<br/>class = RF>, fillcolor="#fef9fd"] ;
52 -> 66 ;
67 [label=<skill_cumulative &le; 1.196<br/>gini = 0.807<br/>samples = 190<br/>value = [0, 21, 13, 0, 0, 26, 45, 0, 48, 37]<br/>class = RF>, fillcolor="#fefbfe"] ;
66 -> 67 ;
68 [label=<potential &le; 1.018<br/>gini = 0.81<br/>samples = 183<br/>value = [0, 21, 13, 0, 0, 26, 45, 0, 41, 37]<br/>class = LM>, fillcolor="#faf9fe"] ;
67 -> 68 ;
69 [label=<gini = 0.806<br/>samples = 145<br/>value = [0, 19, 10, 0, 0, 20, 42, 0, 26, 28]<br/>class = LM>, fillcolor="#e8e7fc"] ;
68 -> 69 ;
70 [label=<gini = 0.748<br/>samples = 38<br/>value = [0, 2, 3, 0, 0, 6, 3, 0, 15, 9]<br/>class = RF>, fillcolor="#fad6f2"] ;
68 -> 70 ;
71 [label=<gini = 0.0<br/>samples = 7<br/>value = [0, 0, 0, 0, 0, 0, 0, 0, 7, 0]<br/>class = RF>, fillcolor="#e539c0"] ;
67 -> 71 ;
72 [label=<attacking_cumulative &le; 0.468<br/>gini = 0.486<br/>samples = 12<br/>value = [0, 0, 0, 0, 0, 8, 1, 0, 3, 0]<br/>class = LF>, fillcolor="#91c9f1"] ;
66 -> 72 ;
73 [label=<gini = 0.0<br/>samples = 2<br/>value = [0, 0, 0, 0, 0, 0, 0, 0, 2, 0]<br/>class = RF>, fillcolor="#e539c0"] ;
72 -> 73 ;
74 [label=<physic &le; -0.731<br/>gini = 0.34<br/>samples = 10<br/>value = [0, 0, 0, 0, 0, 8, 1, 0, 1, 0]<br/>class = LF>, fillcolor="#65b3eb"] ;
72 -> 74 ;
75 [label=<gini = 0.0<br/>samples = 1<br/>value = [0, 0, 0, 0, 0, 0, 1, 0, 0, 0]<br/>class = LM>, fillcolor="#3c39e5"] ;
74 -> 75 ;
76 [label=<gini = 0.198<br/>samples = 9<br/>value = [0, 0, 0, 0, 0, 8, 0, 0, 1, 0]<br/>class = LF>, fillcolor="#52a9e8"] ;
74 -> 76 ;
77 [label=<potential &le; -1.189<br/>gini = 0.74<br/>samples = 555<br/>value = [0, 227, 40, 0, 0, 140, 59, 0, 47, 42]<br/>class = CF>, fillcolor="#f9fad5"] ;
51 -> 77 ;
78 [label=<attacking_cumulative &le; 0.506<br/>gini = 0.445<br/>samples = 73<br/>value = [0, 11, 4, 0, 0, 53, 2, 0, 2, 1]<br/>class = LF>, fillcolor="#79bded"] ;
77 -> 78 ;
79 [label=<mentality_cumulative &le; 0.445<br/>gini = 0.739<br/>samples = 21<br/>value = [0, 9, 3, 0, 0, 4, 2, 0, 2, 1]<br/>class = CF>, fillcolor="#f6f7c5"] ;
78 -> 79 ;
80 [label=<defending &le; -0.951<br/>gini = 0.691<br/>samples = 18<br/>value = [0, 9, 3, 0, 0, 1, 2, 0, 2, 1]<br/>class = CF>, fillcolor="#f3f5b0"] ;
79 -> 80 ;
81 [label=<gini = 0.34<br/>samples = 10<br/>value = [0, 8, 1, 0, 0, 0, 0, 0, 0, 1]<br/>class = CF>, fillcolor="#e8eb65"] ;
80 -> 81 ;
82 [label=<gini = 0.781<br/>samples = 8<br/>value = [0, 1, 2, 0, 0, 1, 2, 0, 2, 0]<br/>class = CM>, fillcolor="#ffffff"] ;
80 -> 82 ;
83 [label=<gini = 0.0<br/>samples = 3<br/>value = [0, 0, 0, 0, 0, 3, 0, 0, 0, 0]<br/>class = LF>, fillcolor="#399de5"] ;
79 -> 83 ;
84 [label=<defending &le; -0.774<br/>gini = 0.11<br/>samples = 52<br/>value = [0, 2, 1, 0, 0, 49, 0, 0, 0, 0]<br/>class = LF>, fillcolor="#45a3e7"] ;
78 -> 84 ;
85 [label=<attacking_cumulative &le; 0.547<br/>gini = 0.039<br/>samples = 50<br/>value = [0, 1, 0, 0, 0, 49, 0, 0, 0, 0]<br/>class = LF>, fillcolor="#3d9fe6"] ;
84 -> 85 ;
86 [label=<gini = 0.375<br/>samples = 4<br/>value = [0, 1, 0, 0, 0, 3, 0, 0, 0, 0]<br/>class = LF>, fillcolor="#7bbeee"] ;
85 -> 86 ;
87 [label=<gini = 0.0<br/>samples = 46<br/>value = [0, 0, 0, 0, 0, 46, 0, 0, 0, 0]<br/>class = LF>, fillcolor="#399de5"] ;
85 -> 87 ;
88 [label=<movement_cumulative &le; 1.052<br/>gini = 0.5<br/>samples = 2<br/>value = [0, 1, 1, 0, 0, 0, 0, 0, 0, 0]<br/>class = CF>, fillcolor="#ffffff"] ;
84 -> 88 ;
89 [label=<gini = 0.0<br/>samples = 1<br/>value = [0, 0, 1, 0, 0, 0, 0, 0, 0, 0]<br/>class = CM>, fillcolor="#7be539"] ;
88 -> 89 ;
90 [label=<gini = 0.0<br/>samples = 1<br/>value = [0, 1, 0, 0, 0, 0, 0, 0, 0, 0]<br/>class = CF>, fillcolor="#e2e539"] ;
88 -> 90 ;
91 [label=<skill_cumulative &le; 0.509<br/>gini = 0.731<br/>samples = 482<br/>value = [0, 216, 36, 0, 0, 87, 57, 0, 45, 41]<br/>class = CF>, fillcolor="#f6f7be"] ;
77 -> 91 ;
92 [label=<movement_cumulative &le; 0.846<br/>gini = 0.617<br/>samples = 290<br/>value = [0, 168, 12, 0, 0, 49, 32, 0, 17, 12]<br/>class = CF>, fillcolor="#f1f29d"] ;
91 -> 92 ;
93 [label=<attacking_cumulative &le; 0.663<br/>gini = 0.496<br/>samples = 188<br/>value = [0, 130, 8, 0, 0, 23, 15, 0, 8, 4]<br/>class = CF>, fillcolor="#ecee7f"] ;
92 -> 93 ;
94 [label=<gini = 0.425<br/>samples = 159<br/>value = [0.0, 119.0, 7.0, 0.0, 0.0, 11.0, 12.0, 0.0, 6.0, 4.0]<br/>class = CF>, fillcolor="#eaec6f"] ;
93 -> 94 ;
95 [label=<gini = 0.668<br/>samples = 29<br/>value = [0, 11, 1, 0, 0, 12, 3, 0, 2, 0]<br/>class = LF>, fillcolor="#f4fafe"] ;
93 -> 95 ;
96 [label=<power_cumulative &le; 0.48<br/>gini = 0.753<br/>samples = 102<br/>value = [0, 38, 4, 0, 0, 26, 17, 0, 9, 8]<br/>class = CF>, fillcolor="#fafbe0"] ;
92 -> 96 ;
97 [label=<gini = 0.785<br/>samples = 57<br/>value = [0, 11, 3, 0, 0, 18, 13, 0, 7, 5]<br/>class = LF>, fillcolor="#e8f4fc"] ;
96 -> 97 ;
98 [label=<gini = 0.594<br/>samples = 45<br/>value = [0, 27, 1, 0, 0, 8, 4, 0, 2, 3]<br/>class = CF>, fillcolor="#f0f299"] ;
96 -> 98 ;
99 [label=<defending &le; -1.094<br/>gini = 0.822<br/>samples = 192<br/>value = [0, 48, 24, 0, 0, 38, 25, 0, 28, 29]<br/>class = CF>, fillcolor="#fdfdf2"] ;
91 -> 99 ;
100 [label=<attacking_cumulative &le; 0.318<br/>gini = 0.32<br/>samples = 16<br/>value = [0, 0, 1, 0, 0, 13, 0, 0, 0, 2]<br/>class = LF>, fillcolor="#63b2eb"] ;
99 -> 100 ;
101 [label=<gini = 0.0<br/>samples = 1<br/>value = [0, 0, 1, 0, 0, 0, 0, 0, 0, 0]<br/>class = CM>, fillcolor="#7be539"] ;
100 -> 101 ;
102 [label=<gini = 0.231<br/>samples = 15<br/>value = [0, 0, 0, 0, 0, 13, 0, 0, 0, 2]<br/>class = LF>, fillcolor="#57ace9"] ;
100 -> 102 ;
103 [label=<power_cumulative &le; 0.695<br/>gini = 0.819<br/>samples = 176<br/>value = [0.0, 48.0, 23.0, 0.0, 0.0, 25.0, 25.0, 0.0, 28.0<br/>27.0]<br/>class = CF>, fillcolor="#fbfbe4"] ;
99 -> 103 ;
104 [label=<gini = 0.832<br/>samples = 109<br/>value = [0, 16, 19, 0, 0, 16, 21, 0, 19, 18]<br/>class = LM>, fillcolor="#fbfbfe"] ;
103 -> 104 ;
105 [label=<gini = 0.711<br/>samples = 67<br/>value = [0, 32, 4, 0, 0, 9, 4, 0, 9, 9]<br/>class = CF>, fillcolor="#f4f5b0"] ;
103 -> 105 ;
106 [label=<attacking_cumulative &le; 0.164<br/>gini = 0.811<br/>samples = 2704<br/>value = [20.0, 435.0, 836.0, 0.0, 24.0, 226.0, 421.0, 19.0<br/>311.0, 412.0]<br/>class = CM>, fillcolor="#e8fadc"] ;
4 -> 106 ;
107 [label=<attacking_cumulative &le; -0.352<br/>gini = 0.604<br/>samples = 474<br/>value = [20.0, 26.0, 290.0, 0.0, 23.0, 4.0, 33.0, 18.0, 26.0<br/>34.0]<br/>class = CM>, fillcolor="#b2f08c"] ;
106 -> 107 ;
108 [label=<preferred_foot_Right &le; -0.588<br/>gini = 0.699<br/>samples = 40<br/>value = [14, 0, 3, 0, 14, 0, 0, 9, 0, 0]<br/>class = CB>, fillcolor="#ffffff"] ;
107 -> 108 ;
109 [label=<skill_cumulative &le; -1.219<br/>gini = 0.245<br/>samples = 14<br/>value = [2, 0, 0, 0, 12, 0, 0, 0, 0, 0]<br/>class = LB>, fillcolor="#5ae9cf"] ;
108 -> 109 ;
110 [label=<gini = 0.0<br/>samples = 2<br/>value = [2, 0, 0, 0, 0, 0, 0, 0, 0, 0]<br/>class = CB>, fillcolor="#e58139"] ;
109 -> 110 ;
111 [label=<gini = 0.0<br/>samples = 12<br/>value = [0, 0, 0, 0, 12, 0, 0, 0, 0, 0]<br/>class = LB>, fillcolor="#39e5c5"] ;
109 -> 111 ;
112 [label=<skill_cumulative &le; -0.811<br/>gini = 0.648<br/>samples = 26<br/>value = [12, 0, 3, 0, 2, 0, 0, 9, 0, 0]<br/>class = CB>, fillcolor="#fae9dc"] ;
108 -> 112 ;
113 [label=<skill_cumulative &le; -1.307<br/>gini = 0.397<br/>samples = 11<br/>value = [3, 0, 0, 0, 0, 0, 0, 8, 0, 0]<br/>class = RB>, fillcolor="#c683ef"] ;
112 -> 113 ;
114 [label=<gini = 0.0<br/>samples = 2<br/>value = [2, 0, 0, 0, 0, 0, 0, 0, 0, 0]<br/>class = CB>, fillcolor="#e58139"] ;
113 -> 114 ;
115 [label=<potential &le; -2.135<br/>gini = 0.198<br/>samples = 9<br/>value = [1, 0, 0, 0, 0, 0, 0, 8, 0, 0]<br/>class = RB>, fillcolor="#ae52e8"] ;
113 -> 115 ;
116 [label=<gini = 0.0<br/>samples = 1<br/>value = [1, 0, 0, 0, 0, 0, 0, 0, 0, 0]<br/>class = CB>, fillcolor="#e58139"] ;
115 -> 116 ;
117 [label=<gini = 0.0<br/>samples = 8<br/>value = [0, 0, 0, 0, 0, 0, 0, 8, 0, 0]<br/>class = RB>, fillcolor="#a339e5"] ;
115 -> 117 ;
118 [label=<potential &le; -2.687<br/>gini = 0.578<br/>samples = 15<br/>value = [9, 0, 3, 0, 2, 0, 0, 1, 0, 0]<br/>class = CB>, fillcolor="#f2c09c"] ;
112 -> 118 ;
119 [label=<gini = 0.0<br/>samples = 2<br/>value = [0, 0, 2, 0, 0, 0, 0, 0, 0, 0]<br/>class = CM>, fillcolor="#7be539"] ;
118 -> 119 ;
120 [label=<weight_kg &le; -0.134<br/>gini = 0.485<br/>samples = 13<br/>value = [9, 0, 1, 0, 2, 0, 0, 1, 0, 0]<br/>class = CB>, fillcolor="#eeaf81"] ;
118 -> 120 ;
121 [label=<gini = 0.298<br/>samples = 11<br/>value = [9, 0, 0, 0, 2, 0, 0, 0, 0, 0]<br/>class = CB>, fillcolor="#eb9d65"] ;
120 -> 121 ;
122 [label=<gini = 0.5<br/>samples = 2<br/>value = [0, 0, 1, 0, 0, 0, 0, 1, 0, 0]<br/>class = CM>, fillcolor="#ffffff"] ;
120 -> 122 ;
123 [label=<movement_cumulative &le; 0.587<br/>gini = 0.542<br/>samples = 434<br/>value = [6, 26, 287, 0, 9, 4, 33, 9, 26, 34]<br/>class = CM>, fillcolor="#acef82"] ;
107 -> 123 ;
124 [label=<defending &le; -0.568<br/>gini = 0.492<br/>samples = 405<br/>value = [6.0, 26.0, 284.0, 0.0, 7.0, 3.0, 29.0, 9.0, 11.0<br/>30.0]<br/>class = CM>, fillcolor="#a6ed79"] ;
123 -> 124 ;
125 [label=<power_cumulative &le; -0.437<br/>gini = 0.731<br/>samples = 65<br/>value = [0, 15, 26, 0, 0, 0, 13, 0, 7, 4]<br/>class = CM>, fillcolor="#e2f9d3"] ;
124 -> 125 ;
126 [label=<skill_cumulative &le; -0.396<br/>gini = 0.668<br/>samples = 51<br/>value = [0.0, 2.0, 25.0, 0.0, 0.0, 0.0, 13.0, 0.0, 7.0, 4.0]<br/>class = CM>, fillcolor="#d5f7c0"] ;
125 -> 126 ;
127 [label=<gini = 0.531<br/>samples = 8<br/>value = [0, 0, 1, 0, 0, 0, 2, 0, 5, 0]<br/>class = RF>, fillcolor="#f29ce0"] ;
126 -> 127 ;
128 [label=<gini = 0.61<br/>samples = 43<br/>value = [0, 2, 24, 0, 0, 0, 11, 0, 2, 4]<br/>class = CM>, fillcolor="#c9f4af"] ;
126 -> 128 ;
129 [label=<mentality_cumulative &le; -0.531<br/>gini = 0.133<br/>samples = 14<br/>value = [0, 13, 1, 0, 0, 0, 0, 0, 0, 0]<br/>class = CF>, fillcolor="#e4e748"] ;
125 -> 129 ;
130 [label=<gini = 0.0<br/>samples = 1<br/>value = [0, 0, 1, 0, 0, 0, 0, 0, 0, 0]<br/>class = CM>, fillcolor="#7be539"] ;
129 -> 130 ;
131 [label=<gini = 0.0<br/>samples = 13<br/>value = [0, 13, 0, 0, 0, 0, 0, 0, 0, 0]<br/>class = CF>, fillcolor="#e2e539"] ;
129 -> 131 ;
132 [label=<preferred_foot_Right &le; -0.588<br/>gini = 0.413<br/>samples = 340<br/>value = [6.0, 11.0, 258.0, 0.0, 7.0, 3.0, 16.0, 9.0, 4.0<br/>26.0]<br/>class = CM>, fillcolor="#9dec6d"] ;
124 -> 132 ;
133 [label=<potential &le; -2.135<br/>gini = 0.609<br/>samples = 50<br/>value = [1.0, 1.0, 29.0, 0.0, 5.0, 0.0, 10.0, 0.0, 1.0, 3.0]<br/>class = CM>, fillcolor="#c0f3a1"] ;
132 -> 133 ;
134 [label=<gini = 0.32<br/>samples = 5<br/>value = [0, 1, 0, 0, 0, 0, 4, 0, 0, 0]<br/>class = LM>, fillcolor="#6d6aec"] ;
133 -> 134 ;
135 [label=<gini = 0.549<br/>samples = 45<br/>value = [1.0, 0.0, 29.0, 0.0, 5.0, 0.0, 6.0, 0.0, 1.0, 3.0]<br/>class = CM>, fillcolor="#b1f08a"] ;
133 -> 135 ;
136 [label=<mentality_cumulative &le; -0.856<br/>gini = 0.367<br/>samples = 290<br/>value = [5, 10, 229, 0, 2, 3, 6, 9, 3, 23]<br/>class = CM>, fillcolor="#99eb66"] ;
132 -> 136 ;
137 [label=<gini = 0.833<br/>samples = 6<br/>value = [0, 1, 1, 0, 1, 1, 0, 1, 0, 1]<br/>class = CF>, fillcolor="#ffffff"] ;
136 -> 137 ;
138 [label=<gini = 0.347<br/>samples = 284<br/>value = [5, 9, 228, 0, 1, 2, 6, 8, 3, 22]<br/>class = CM>, fillcolor="#97eb63"] ;
136 -> 138 ;
139 [label=<skill_cumulative &le; 0.161<br/>gini = 0.678<br/>samples = 29<br/>value = [0.0, 0.0, 3.0, 0.0, 2.0, 1.0, 4.0, 0.0, 15.0, 4.0]<br/>class = RF>, fillcolor="#f4a8e3"] ;
123 -> 139 ;
140 [label=<potential &le; -0.716<br/>gini = 0.805<br/>samples = 16<br/>value = [0, 0, 3, 0, 2, 1, 4, 0, 2, 4]<br/>class = LM>, fillcolor="#ffffff"] ;
139 -> 140 ;
141 [label=<power_cumulative &le; -0.086<br/>gini = 0.32<br/>samples = 5<br/>value = [0, 0, 1, 0, 0, 0, 4, 0, 0, 0]<br/>class = LM>, fillcolor="#6d6aec"] ;
140 -> 141 ;
142 [label=<gini = 0.0<br/>samples = 4<br/>value = [0, 0, 0, 0, 0, 0, 4, 0, 0, 0]<br/>class = LM>, fillcolor="#3c39e5"] ;
141 -> 142 ;
143 [label=<gini = 0.0<br/>samples = 1<br/>value = [0, 0, 1, 0, 0, 0, 0, 0, 0, 0]<br/>class = CM>, fillcolor="#7be539"] ;
141 -> 143 ;
144 [label=<potential &le; 0.072<br/>gini = 0.76<br/>samples = 11<br/>value = [0, 0, 2, 0, 2, 1, 0, 0, 2, 4]<br/>class = RM>, fillcolor="#f9d3da"] ;
140 -> 144 ;
145 [label=<gini = 0.0<br/>samples = 4<br/>value = [0, 0, 0, 0, 0, 0, 0, 0, 0, 4]<br/>class = RM>, fillcolor="#e53958"] ;
144 -> 145 ;
146 [label=<gini = 0.735<br/>samples = 7<br/>value = [0, 0, 2, 0, 2, 1, 0, 0, 2, 0]<br/>class = CM>, fillcolor="#ffffff"] ;
144 -> 146 ;
147 [label=<gini = 0.0<br/>samples = 13<br/>value = [0, 0, 0, 0, 0, 0, 0, 0, 13, 0]<br/>class = RF>, fillcolor="#e539c0"] ;
139 -> 147 ;
148 [label=<physic &le; 0.346<br/>gini = 0.821<br/>samples = 2230<br/>value = [0.0, 409.0, 546.0, 0.0, 1.0, 222.0, 388.0, 1.0, 285.0<br/>378.0]<br/>class = CM>, fillcolor="#f5fdf0"] ;
106 -> 148 ;
149 [label=<movement_cumulative &le; 0.78<br/>gini = 0.812<br/>samples = 1715<br/>value = [0.0, 201.0, 475.0, 0.0, 1.0, 172.0, 331.0, 1.0, 222.0<br/>312.0]<br/>class = CM>, fillcolor="#f1fcea"] ;
148 -> 149 ;
150 [label=<skill_cumulative &le; 0.363<br/>gini = 0.776<br/>samples = 893<br/>value = [0, 108, 333, 0, 1, 67, 146, 1, 87, 150]<br/>class = CM>, fillcolor="#def9ce"] ;
149 -> 150 ;
151 [label=<power_cumulative &le; 0.014<br/>gini = 0.824<br/>samples = 351<br/>value = [0, 64, 68, 0, 1, 36, 74, 1, 38, 69]<br/>class = LM>, fillcolor="#fcfbff"] ;
150 -> 151 ;
152 [label=<attacking_cumulative &le; 0.377<br/>gini = 0.808<br/>samples = 252<br/>value = [0, 15, 54, 0, 0, 33, 61, 1, 30, 58]<br/>class = LM>, fillcolor="#fcfcff"] ;
151 -> 152 ;
153 [label=<gini = 0.787<br/>samples = 186<br/>value = [0.0, 8.0, 51.0, 0.0, 0.0, 18.0, 42.0, 1.0, 18.0<br/>48.0]<br/>class = CM>, fillcolor="#fcfefb"] ;
152 -> 153 ;
154 [label=<gini = 0.796<br/>samples = 66<br/>value = [0, 7, 3, 0, 0, 15, 19, 0, 12, 10]<br/>class = LM>, fillcolor="#f0effd"] ;
152 -> 154 ;
155 [label=<defending &le; -0.026<br/>gini = 0.698<br/>samples = 99<br/>value = [0.0, 49.0, 14.0, 0.0, 1.0, 3.0, 13.0, 0.0, 8.0, 11.0]<br/>class = CF>, fillcolor="#f3f4ad"] ;
151 -> 155 ;
156 [label=<gini = 0.631<br/>samples = 84<br/>value = [0, 48, 5, 0, 0, 3, 10, 0, 8, 10]<br/>class = CF>, fillcolor="#f0f299"] ;
155 -> 156 ;
157 [label=<gini = 0.587<br/>samples = 15<br/>value = [0, 1, 9, 0, 1, 0, 3, 0, 0, 1]<br/>class = CM>, fillcolor="#bdf29c"] ;
155 -> 157 ;
158 [label=<skill_cumulative &le; 1.728<br/>gini = 0.703<br/>samples = 542<br/>value = [0, 44, 265, 0, 0, 31, 72, 0, 49, 81]<br/>class = CM>, fillcolor="#caf5b0"] ;
150 -> 158 ;
159 [label=<attacking_cumulative &le; 0.447<br/>gini = 0.689<br/>samples = 523<br/>value = [0, 44, 264, 0, 0, 29, 71, 0, 35, 80]<br/>class = CM>, fillcolor="#c8f4ad"] ;
158 -> 159 ;
160 [label=<gini = 0.534<br/>samples = 181<br/>value = [0, 5, 120, 0, 0, 8, 15, 0, 13, 20]<br/>class = CM>, fillcolor="#adef84"] ;
159 -> 160 ;
161 [label=<gini = 0.744<br/>samples = 342<br/>value = [0, 39, 144, 0, 0, 21, 56, 0, 22, 60]<br/>class = CM>, fillcolor="#d8f7c4"] ;
159 -> 161 ;
162 [label=<attacking_cumulative &le; 1.021<br/>gini = 0.438<br/>samples = 19<br/>value = [0, 0, 1, 0, 0, 2, 1, 0, 14, 1]<br/>class = RF>, fillcolor="#ed73d3"] ;
158 -> 162 ;
163 [label=<gini = 0.219<br/>samples = 16<br/>value = [0, 0, 0, 0, 0, 2, 0, 0, 14, 0]<br/>class = RF>, fillcolor="#e955c9"] ;
162 -> 163 ;
164 [label=<gini = 0.667<br/>samples = 3<br/>value = [0, 0, 1, 0, 0, 0, 1, 0, 0, 1]<br/>class = CM>, fillcolor="#ffffff"] ;
162 -> 164 ;
165 [label=<power_cumulative &le; -1.053<br/>gini = 0.825<br/>samples = 822<br/>value = [0.0, 93.0, 142.0, 0.0, 0.0, 105.0, 185.0, 0.0, 135.0<br/>162.0]<br/>class = LM>, fillcolor="#f8f8fe"] ;
149 -> 165 ;
166 [label=<skill_cumulative &le; 1.383<br/>gini = 0.646<br/>samples = 41<br/>value = [0, 0, 5, 0, 0, 11, 2, 0, 21, 2]<br/>class = RF>, fillcolor="#f6bdea"] ;
165 -> 166 ;
167 [label=<height_cm &le; -1.549<br/>gini = 0.718<br/>samples = 30<br/>value = [0, 0, 5, 0, 0, 11, 2, 0, 10, 2]<br/>class = LF>, fillcolor="#f5fafe"] ;
166 -> 167 ;
168 [label=<gini = 0.722<br/>samples = 13<br/>value = [0, 0, 5, 0, 0, 4, 2, 0, 1, 1]<br/>class = CM>, fillcolor="#f0fce9"] ;
167 -> 168 ;
169 [label=<gini = 0.547<br/>samples = 17<br/>value = [0, 0, 0, 0, 0, 7, 0, 0, 9, 1]<br/>class = RF>, fillcolor="#fad7f2"] ;
167 -> 169 ;
170 [label=<gini = 0.0<br/>samples = 11<br/>value = [0, 0, 0, 0, 0, 0, 0, 0, 11, 0]<br/>class = RF>, fillcolor="#e539c0"] ;
166 -> 170 ;
171 [label=<skill_cumulative &le; 1.074<br/>gini = 0.822<br/>samples = 781<br/>value = [0.0, 93.0, 137.0, 0.0, 0.0, 94.0, 183.0, 0.0, 114.0<br/>160.0]<br/>class = LM>, fillcolor="#f8f8fe"] ;
165 -> 171 ;
172 [label=<power_cumulative &le; 0.675<br/>gini = 0.816<br/>samples = 554<br/>value = [0, 79, 76, 0, 0, 62, 131, 0, 69, 137]<br/>class = RM>, fillcolor="#fffcfd"] ;
171 -> 172 ;
173 [label=<gini = 0.803<br/>samples = 455<br/>value = [0, 45, 67, 0, 0, 47, 114, 0, 56, 126]<br/>class = RM>, fillcolor="#fef8f9"] ;
172 -> 173 ;
174 [label=<gini = 0.792<br/>samples = 99<br/>value = [0.0, 34.0, 9.0, 0.0, 0.0, 15.0, 17.0, 0.0, 13.0<br/>11.0]<br/>class = CF>, fillcolor="#f9fad6"] ;
172 -> 174 ;
175 [label=<attacking_cumulative &le; 0.649<br/>gini = 0.802<br/>samples = 227<br/>value = [0.0, 14.0, 61.0, 0.0, 0.0, 32.0, 52.0, 0.0, 45.0<br/>23.0]<br/>class = CM>, fillcolor="#f8fef5"] ;
171 -> 175 ;
176 [label=<gini = 0.363<br/>samples = 23<br/>value = [0, 0, 2, 0, 0, 3, 0, 0, 18, 0]<br/>class = RF>, fillcolor="#ec6ad0"] ;
175 -> 176 ;
177 [label=<gini = 0.796<br/>samples = 204<br/>value = [0.0, 14.0, 59.0, 0.0, 0.0, 29.0, 52.0, 0.0, 27.0<br/>23.0]<br/>class = CM>, fillcolor="#f9fef6"] ;
175 -> 177 ;
178 [label=<power_cumulative &le; 0.056<br/>gini = 0.765<br/>samples = 515<br/>value = [0, 208, 71, 0, 0, 50, 57, 0, 63, 66]<br/>class = CF>, fillcolor="#f6f7c2"] ;
148 -> 178 ;
179 [label=<power_cumulative &le; -0.397<br/>gini = 0.378<br/>samples = 36<br/>value = [0, 0, 2, 0, 0, 1, 1, 0, 28, 4]<br/>class = RF>, fillcolor="#ec6ad0"] ;
178 -> 179 ;
180 [label=<goalkeeping_cumulative &le; -0.373<br/>gini = 0.083<br/>samples = 23<br/>value = [0, 0, 0, 0, 0, 1, 0, 0, 22, 0]<br/>class = RF>, fillcolor="#e642c3"] ;
179 -> 180 ;
181 [label=<gini = 0.0<br/>samples = 1<br/>value = [0, 0, 0, 0, 0, 1, 0, 0, 0, 0]<br/>class = LF>, fillcolor="#399de5"] ;
180 -> 181 ;
182 [label=<gini = 0.0<br/>samples = 22<br/>value = [0, 0, 0, 0, 0, 0, 0, 0, 22, 0]<br/>class = RF>, fillcolor="#e539c0"] ;
180 -> 182 ;
183 [label=<mentality_cumulative &le; -0.126<br/>gini = 0.663<br/>samples = 13<br/>value = [0, 0, 2, 0, 0, 0, 1, 0, 6, 4]<br/>class = RF>, fillcolor="#f9d3f1"] ;
179 -> 183 ;
184 [label=<gini = 0.0<br/>samples = 5<br/>value = [0, 0, 0, 0, 0, 0, 0, 0, 5, 0]<br/>class = RF>, fillcolor="#e539c0"] ;
183 -> 184 ;
185 [label=<weight_kg &le; -0.766<br/>gini = 0.656<br/>samples = 8<br/>value = [0, 0, 2, 0, 0, 0, 1, 0, 1, 4]<br/>class = RM>, fillcolor="#f6bdc7"] ;
183 -> 185 ;
186 [label=<gini = 0.625<br/>samples = 4<br/>value = [0, 0, 2, 0, 0, 0, 1, 0, 1, 0]<br/>class = CM>, fillcolor="#d3f6bd"] ;
185 -> 186 ;
187 [label=<gini = 0.0<br/>samples = 4<br/>value = [0, 0, 0, 0, 0, 0, 0, 0, 0, 4]<br/>class = RM>, fillcolor="#e53958"] ;
185 -> 187 ;
188 [label=<defending &le; -0.181<br/>gini = 0.744<br/>samples = 479<br/>value = [0.0, 208.0, 69.0, 0.0, 0.0, 49.0, 56.0, 0.0, 35.0<br/>62.0]<br/>class = CF>, fillcolor="#f5f6bc"] ;
178 -> 188 ;
189 [label=<skill_cumulative &le; 0.747<br/>gini = 0.674<br/>samples = 312<br/>value = [0.0, 165.0, 22.0, 0.0, 0.0, 32.0, 37.0, 0.0, 25.0<br/>31.0]<br/>class = CF>, fillcolor="#f2f3a3"] ;
188 -> 189 ;
190 [label=<movement_cumulative &le; 0.885<br/>gini = 0.544<br/>samples = 180<br/>value = [0, 118, 5, 0, 0, 15, 16, 0, 11, 15]<br/>class = CF>, fillcolor="#edef84"] ;
189 -> 190 ;
191 [label=<gini = 0.348<br/>samples = 111<br/>value = [0, 89, 2, 0, 0, 5, 4, 0, 3, 8]<br/>class = CF>, fillcolor="#e8eb63"] ;
190 -> 191 ;
192 [label=<gini = 0.746<br/>samples = 69<br/>value = [0, 29, 3, 0, 0, 10, 12, 0, 8, 7]<br/>class = CF>, fillcolor="#f6f7c4"] ;
190 -> 192 ;
193 [label=<power_cumulative &le; 1.202<br/>gini = 0.789<br/>samples = 132<br/>value = [0, 47, 17, 0, 0, 17, 21, 0, 14, 16]<br/>class = CF>, fillcolor="#f8f9d1"] ;
189 -> 193 ;
194 [label=<gini = 0.826<br/>samples = 63<br/>value = [0, 9, 9, 0, 0, 10, 15, 0, 11, 9]<br/>class = LM>, fillcolor="#f0f0fd"] ;
193 -> 194 ;
195 [label=<gini = 0.653<br/>samples = 69<br/>value = [0, 38, 8, 0, 0, 7, 6, 0, 3, 7]<br/>class = CF>, fillcolor="#f1f29e"] ;
193 -> 195 ;
196 [label=<power_cumulative &le; 1.046<br/>gini = 0.793<br/>samples = 167<br/>value = [0.0, 43.0, 47.0, 0.0, 0.0, 17.0, 19.0, 0.0, 10.0<br/>31.0]<br/>class = CM>, fillcolor="#fbfef9"] ;
188 -> 196 ;
197 [label=<movement_cumulative &le; 1.026<br/>gini = 0.749<br/>samples = 98<br/>value = [0.0, 14.0, 40.0, 0.0, 0.0, 9.0, 11.0, 0.0, 4.0, 20.0]<br/>class = CM>, fillcolor="#ddf8cc"] ;
196 -> 197 ;
198 [label=<gini = 0.688<br/>samples = 77<br/>value = [0.0, 13.0, 38.0, 0.0, 0.0, 6.0, 5.0, 0.0, 2.0, 13.0]<br/>class = CM>, fillcolor="#cbf5b2"] ;
197 -> 198 ;
199 [label=<gini = 0.766<br/>samples = 21<br/>value = [0, 1, 2, 0, 0, 3, 6, 0, 2, 7]<br/>class = RM>, fillcolor="#fdf2f4"] ;
197 -> 199 ;
200 [label=<skill_cumulative &le; 1.087<br/>gini = 0.753<br/>samples = 69<br/>value = [0.0, 29.0, 7.0, 0.0, 0.0, 8.0, 8.0, 0.0, 6.0, 11.0]<br/>class = CF>, fillcolor="#f6f7c2"] ;
196 -> 200 ;
201 [label=<gini = 0.56<br/>samples = 33<br/>value = [0, 21, 1, 0, 0, 2, 4, 0, 1, 4]<br/>class = CF>, fillcolor="#eef08b"] ;
200 -> 201 ;
202 [label=<gini = 0.826<br/>samples = 36<br/>value = [0, 8, 6, 0, 0, 6, 4, 0, 5, 7]<br/>class = CF>, fillcolor="#fefef8"] ;
200 -> 202 ;
203 [label=<movement_cumulative &le; 0.702<br/>gini = 0.552<br/>samples = 1572<br/>value = [8.0, 1023.0, 121.0, 0.0, 0.0, 148.0, 82.0, 3.0, 109.0<br/>78.0]<br/>class = CF>, fillcolor="#edef85"] ;
3 -> 203 ;
204 [label=<power_cumulative &le; -0.378<br/>gini = 0.409<br/>samples = 1180<br/>value = [8.0, 897.0, 108.0, 0.0, 0.0, 35.0, 51.0, 3.0, 37.0<br/>41.0]<br/>class = CF>, fillcolor="#eaec6d"] ;
203 -> 204 ;
205 [label=<defending &le; -0.613<br/>gini = 0.822<br/>samples = 108<br/>value = [6, 20, 33, 0, 0, 12, 10, 3, 14, 10]<br/>class = CM>, fillcolor="#ecfbe2"] ;
204 -> 205 ;
206 [label=<skill_cumulative &le; -0.082<br/>gini = 0.753<br/>samples = 46<br/>value = [0, 18, 1, 0, 0, 10, 5, 0, 6, 6]<br/>class = CF>, fillcolor="#f9f9d3"] ;
205 -> 206 ;
207 [label=<movement_cumulative &le; -0.248<br/>gini = 0.584<br/>samples = 28<br/>value = [0, 17, 0, 0, 0, 4, 4, 0, 2, 1]<br/>class = CF>, fillcolor="#eff194"] ;
206 -> 207 ;
208 [label=<defending &le; -0.703<br/>gini = 0.153<br/>samples = 12<br/>value = [0, 11, 0, 0, 0, 0, 1, 0, 0, 0]<br/>class = CF>, fillcolor="#e5e74b"] ;
207 -> 208 ;
209 [label=<gini = 0.0<br/>samples = 11<br/>value = [0, 11, 0, 0, 0, 0, 0, 0, 0, 0]<br/>class = CF>, fillcolor="#e2e539"] ;
208 -> 209 ;
210 [label=<gini = 0.0<br/>samples = 1<br/>value = [0, 0, 0, 0, 0, 0, 1, 0, 0, 0]<br/>class = LM>, fillcolor="#3c39e5"] ;
208 -> 210 ;
211 [label=<defending &le; -0.838<br/>gini = 0.742<br/>samples = 16<br/>value = [0, 6, 0, 0, 0, 4, 3, 0, 2, 1]<br/>class = CF>, fillcolor="#fafbde"] ;
207 -> 211 ;
212 [label=<movement_cumulative &le; -0.151<br/>gini = 0.698<br/>samples = 13<br/>value = [0, 6, 0, 0, 0, 1, 3, 0, 2, 1]<br/>class = CF>, fillcolor="#f6f7c4"] ;
211 -> 212 ;
213 [label=<gini = 0.5<br/>samples = 4<br/>value = [0, 0, 0, 0, 0, 0, 2, 0, 2, 0]<br/>class = LM>, fillcolor="#ffffff"] ;
212 -> 213 ;
214 [label=<gini = 0.519<br/>samples = 9<br/>value = [0, 6, 0, 0, 0, 1, 1, 0, 0, 1]<br/>class = CF>, fillcolor="#edef83"] ;
212 -> 214 ;
215 [label=<gini = 0.0<br/>samples = 3<br/>value = [0, 0, 0, 0, 0, 3, 0, 0, 0, 0]<br/>class = LF>, fillcolor="#399de5"] ;
211 -> 215 ;
216 [label=<potential &le; -0.637<br/>gini = 0.753<br/>samples = 18<br/>value = [0, 1, 1, 0, 0, 6, 1, 0, 4, 5]<br/>class = LF>, fillcolor="#f0f7fd"] ;
206 -> 216 ;
217 [label=<height_cm &le; -1.402<br/>gini = 0.494<br/>samples = 9<br/>value = [0, 0, 0, 0, 0, 6, 0, 0, 2, 1]<br/>class = LF>, fillcolor="#8ec7f0"] ;
216 -> 217 ;
218 [label=<gini = 0.0<br/>samples = 2<br/>value = [0, 0, 0, 0, 0, 0, 0, 0, 2, 0]<br/>class = RF>, fillcolor="#e539c0"] ;
217 -> 218 ;
219 [label=<mentality_cumulative &le; -0.748<br/>gini = 0.245<br/>samples = 7<br/>value = [0, 0, 0, 0, 0, 6, 0, 0, 0, 1]<br/>class = LF>, fillcolor="#5aade9"] ;
217 -> 219 ;
220 [label=<gini = 0.0<br/>samples = 1<br/>value = [0, 0, 0, 0, 0, 0, 0, 0, 0, 1]<br/>class = RM>, fillcolor="#e53958"] ;
219 -> 220 ;
221 [label=<gini = 0.0<br/>samples = 6<br/>value = [0, 0, 0, 0, 0, 6, 0, 0, 0, 0]<br/>class = LF>, fillcolor="#399de5"] ;
219 -> 221 ;
222 [label=<preferred_foot_Right &le; -0.588<br/>gini = 0.716<br/>samples = 9<br/>value = [0, 1, 1, 0, 0, 0, 1, 0, 2, 4]<br/>class = RM>, fillcolor="#f8c6cf"] ;
216 -> 222 ;
223 [label=<movement_cumulative &le; 0.297<br/>gini = 0.625<br/>samples = 4<br/>value = [0, 0, 1, 0, 0, 0, 1, 0, 2, 0]<br/>class = RF>, fillcolor="#f6bdea"] ;
222 -> 223 ;
224 [label=<gini = 0.5<br/>samples = 2<br/>value = [0, 0, 1, 0, 0, 0, 1, 0, 0, 0]<br/>class = CM>, fillcolor="#ffffff"] ;
223 -> 224 ;
225 [label=<gini = 0.0<br/>samples = 2<br/>value = [0, 0, 0, 0, 0, 0, 0, 0, 2, 0]<br/>class = RF>, fillcolor="#e539c0"] ;
223 -> 225 ;
226 [label=<weight_kg &le; 0.85<br/>gini = 0.32<br/>samples = 5<br/>value = [0, 1, 0, 0, 0, 0, 0, 0, 0, 4]<br/>class = RM>, fillcolor="#ec6a82"] ;
222 -> 226 ;
227 [label=<gini = 0.0<br/>samples = 4<br/>value = [0, 0, 0, 0, 0, 0, 0, 0, 0, 4]<br/>class = RM>, fillcolor="#e53958"] ;
226 -> 227 ;
228 [label=<gini = 0.0<br/>samples = 1<br/>value = [0, 1, 0, 0, 0, 0, 0, 0, 0, 0]<br/>class = CF>, fillcolor="#e2e539"] ;
226 -> 228 ;
229 [label=<attacking_cumulative &le; -0.39<br/>gini = 0.693<br/>samples = 62<br/>value = [6, 2, 32, 0, 0, 2, 5, 3, 8, 4]<br/>class = CM>, fillcolor="#c4f3a7"] ;
205 -> 229 ;
230 [label=<mentality_cumulative &le; -0.768<br/>gini = 0.245<br/>samples = 7<br/>value = [6, 0, 0, 0, 0, 0, 0, 1, 0, 0]<br/>class = CB>, fillcolor="#e9965a"] ;
229 -> 230 ;
231 [label=<gini = 0.0<br/>samples = 6<br/>value = [6, 0, 0, 0, 0, 0, 0, 0, 0, 0]<br/>class = CB>, fillcolor="#e58139"] ;
230 -> 231 ;
232 [label=<gini = 0.0<br/>samples = 1<br/>value = [0, 0, 0, 0, 0, 0, 0, 1, 0, 0]<br/>class = RB>, fillcolor="#a339e5"] ;
230 -> 232 ;
233 [label=<attacking_cumulative &le; 0.428<br/>gini = 0.623<br/>samples = 55<br/>value = [0, 2, 32, 0, 0, 2, 5, 2, 8, 4]<br/>class = CM>, fillcolor="#bcf29a"] ;
229 -> 233 ;
234 [label=<mentality_cumulative &le; 0.084<br/>gini = 0.463<br/>samples = 43<br/>value = [0.0, 1.0, 31.0, 0.0, 0.0, 1.0, 3.0, 2.0, 1.0, 4.0]<br/>class = CM>, fillcolor="#a4ed76"] ;
233 -> 234 ;
235 [label=<skill_cumulative &le; -0.585<br/>gini = 0.385<br/>samples = 40<br/>value = [0, 1, 31, 0, 0, 0, 3, 2, 0, 3]<br/>class = CM>, fillcolor="#9beb69"] ;
234 -> 235 ;
236 [label=<gini = 0.5<br/>samples = 2<br/>value = [0, 0, 0, 0, 0, 0, 0, 1, 0, 1]<br/>class = RB>, fillcolor="#ffffff"] ;
235 -> 236 ;
237 [label=<gini = 0.324<br/>samples = 38<br/>value = [0, 1, 31, 0, 0, 0, 3, 1, 0, 2]<br/>class = CM>, fillcolor="#95ea61"] ;
235 -> 237 ;
238 [label=<height_cm &le; -0.38<br/>gini = 0.667<br/>samples = 3<br/>value = [0, 0, 0, 0, 0, 1, 0, 0, 1, 1]<br/>class = LF>, fillcolor="#ffffff"] ;
234 -> 238 ;
239 [label=<gini = 0.0<br/>samples = 1<br/>value = [0, 0, 0, 0, 0, 0, 0, 0, 1, 0]<br/>class = RF>, fillcolor="#e539c0"] ;
238 -> 239 ;
240 [label=<gini = 0.5<br/>samples = 2<br/>value = [0, 0, 0, 0, 0, 1, 0, 0, 0, 1]<br/>class = LF>, fillcolor="#ffffff"] ;
238 -> 240 ;
241 [label=<attacking_cumulative &le; 0.453<br/>gini = 0.611<br/>samples = 12<br/>value = [0, 1, 1, 0, 0, 1, 2, 0, 7, 0]<br/>class = RF>, fillcolor="#f29ce0"] ;
233 -> 241 ;
242 [label=<gini = 0.0<br/>samples = 2<br/>value = [0, 0, 0, 0, 0, 0, 2, 0, 0, 0]<br/>class = LM>, fillcolor="#3c39e5"] ;
241 -> 242 ;
243 [label=<defending &le; -0.487<br/>gini = 0.48<br/>samples = 10<br/>value = [0, 1, 1, 0, 0, 1, 0, 0, 7, 0]<br/>class = RF>, fillcolor="#ee7bd5"] ;
241 -> 243 ;
244 [label=<gini = 0.667<br/>samples = 3<br/>value = [0, 1, 1, 0, 0, 1, 0, 0, 0, 0]<br/>class = CF>, fillcolor="#ffffff"] ;
243 -> 244 ;
245 [label=<gini = 0.0<br/>samples = 7<br/>value = [0, 0, 0, 0, 0, 0, 0, 0, 7, 0]<br/>class = RF>, fillcolor="#e539c0"] ;
243 -> 245 ;
246 [label=<defending &le; -0.252<br/>gini = 0.323<br/>samples = 1072<br/>value = [2, 877, 75, 0, 0, 23, 41, 0, 23, 31]<br/>class = CF>, fillcolor="#e8ea60"] ;
204 -> 246 ;
247 [label=<height_cm &le; 0.058<br/>gini = 0.237<br/>samples = 893<br/>value = [0, 778, 32, 0, 0, 22, 27, 0, 17, 17]<br/>class = CF>, fillcolor="#e6e853"] ;
246 -> 247 ;
248 [label=<skill_cumulative &le; -0.019<br/>gini = 0.53<br/>samples = 151<br/>value = [0, 101, 14, 0, 0, 9, 11, 0, 8, 8]<br/>class = CF>, fillcolor="#edee81"] ;
247 -> 248 ;
249 [label=<attacking_cumulative &le; 0.711<br/>gini = 0.168<br/>samples = 56<br/>value = [0, 51, 0, 0, 0, 1, 1, 0, 2, 1]<br/>class = CF>, fillcolor="#e5e74b"] ;
248 -> 249 ;
250 [label=<height_cm &le; -1.037<br/>gini = 0.106<br/>samples = 54<br/>value = [0, 51, 0, 0, 0, 0, 0, 0, 2, 1]<br/>class = CF>, fillcolor="#e4e644"] ;
249 -> 250 ;
251 [label=<gini = 0.5<br/>samples = 2<br/>value = [0, 1, 0, 0, 0, 0, 0, 0, 1, 0]<br/>class = CF>, fillcolor="#ffffff"] ;
250 -> 251 ;
252 [label=<gini = 0.075<br/>samples = 52<br/>value = [0, 50, 0, 0, 0, 0, 0, 0, 1, 1]<br/>class = CF>, fillcolor="#e3e641"] ;
250 -> 252 ;
253 [label=<potential &le; 0.23<br/>gini = 0.5<br/>samples = 2<br/>value = [0, 0, 0, 0, 0, 1, 1, 0, 0, 0]<br/>class = LF>, fillcolor="#ffffff"] ;
249 -> 253 ;
254 [label=<gini = 0.0<br/>samples = 1<br/>value = [0, 0, 0, 0, 0, 0, 1, 0, 0, 0]<br/>class = LM>, fillcolor="#3c39e5"] ;
253 -> 254 ;
255 [label=<gini = 0.0<br/>samples = 1<br/>value = [0, 0, 0, 0, 0, 1, 0, 0, 0, 0]<br/>class = LF>, fillcolor="#399de5"] ;
253 -> 255 ;
256 [label=<physic &le; 0.056<br/>gini = 0.674<br/>samples = 95<br/>value = [0.0, 50.0, 14.0, 0.0, 0.0, 8.0, 10.0, 0.0, 6.0, 7.0]<br/>class = CF>, fillcolor="#f2f3a7"] ;
248 -> 256 ;
257 [label=<power_cumulative &le; 0.213<br/>gini = 0.789<br/>samples = 16<br/>value = [0, 1, 4, 0, 0, 4, 2, 0, 4, 1]<br/>class = CM>, fillcolor="#ffffff"] ;
256 -> 257 ;
258 [label=<gini = 0.656<br/>samples = 8<br/>value = [0, 1, 4, 0, 0, 0, 2, 0, 0, 1]<br/>class = CM>, fillcolor="#d3f6bd"] ;
257 -> 258 ;
259 [label=<gini = 0.5<br/>samples = 8<br/>value = [0, 0, 0, 0, 0, 4, 0, 0, 4, 0]<br/>class = LF>, fillcolor="#ffffff"] ;
257 -> 259 ;
260 [label=<power_cumulative &le; 0.851<br/>gini = 0.58<br/>samples = 79<br/>value = [0, 49, 10, 0, 0, 4, 8, 0, 2, 6]<br/>class = CF>, fillcolor="#eff08f"] ;
256 -> 260 ;
261 [label=<gini = 0.717<br/>samples = 42<br/>value = [0, 19, 7, 0, 0, 1, 7, 0, 2, 6]<br/>class = CF>, fillcolor="#f5f6bb"] ;
260 -> 261 ;
262 [label=<gini = 0.329<br/>samples = 37<br/>value = [0, 30, 3, 0, 0, 3, 1, 0, 0, 0]<br/>class = CF>, fillcolor="#e8ea62"] ;
260 -> 262 ;
263 [label=<physic &le; -0.494<br/>gini = 0.166<br/>samples = 742<br/>value = [0, 677, 18, 0, 0, 13, 16, 0, 9, 9]<br/>class = CF>, fillcolor="#e5e74b"] ;
247 -> 263 ;
264 [label=<gini = 0.0<br/>samples = 2<br/>value = [0, 0, 0, 0, 0, 2, 0, 0, 0, 0]<br/>class = LF>, fillcolor="#399de5"] ;
263 -> 264 ;
265 [label=<movement_cumulative &le; -0.134<br/>gini = 0.161<br/>samples = 740<br/>value = [0, 677, 18, 0, 0, 11, 16, 0, 9, 9]<br/>class = CF>, fillcolor="#e5e74a"] ;
263 -> 265 ;
266 [label=<mentality_cumulative &le; 1.653<br/>gini = 0.047<br/>samples = 376<br/>value = [0.0, 367.0, 4.0, 0.0, 0.0, 0.0, 3.0, 0.0, 1.0, 1.0]<br/>class = CF>, fillcolor="#e3e63e"] ;
265 -> 266 ;
267 [label=<gini = 0.042<br/>samples = 375<br/>value = [0, 367, 4, 0, 0, 0, 3, 0, 0, 1]<br/>class = CF>, fillcolor="#e3e63d"] ;
266 -> 267 ;
268 [label=<gini = 0.0<br/>samples = 1<br/>value = [0, 0, 0, 0, 0, 0, 0, 0, 1, 0]<br/>class = RF>, fillcolor="#e539c0"] ;
266 -> 268 ;
269 [label=<power_cumulative &le; -0.144<br/>gini = 0.27<br/>samples = 364<br/>value = [0, 310, 14, 0, 0, 11, 13, 0, 8, 8]<br/>class = CF>, fillcolor="#e6e958"] ;
265 -> 269 ;
270 [label=<gini = 0.769<br/>samples = 13<br/>value = [0, 4, 3, 0, 0, 0, 3, 0, 1, 2]<br/>class = CF>, fillcolor="#fcfceb"] ;
269 -> 270 ;
271 [label=<gini = 0.237<br/>samples = 351<br/>value = [0.0, 306.0, 11.0, 0.0, 0.0, 11.0, 10.0, 0.0, 7.0<br/>6.0]<br/>class = CF>, fillcolor="#e6e853"] ;
269 -> 271 ;
272 [label=<physic &le; 0.556<br/>gini = 0.623<br/>samples = 179<br/>value = [2, 99, 43, 0, 0, 1, 14, 0, 6, 14]<br/>class = CF>, fillcolor="#f3f4ad"] ;
246 -> 272 ;
273 [label=<movement_cumulative &le; 0.148<br/>gini = 0.71<br/>samples = 79<br/>value = [2, 18, 36, 0, 0, 0, 9, 0, 5, 9]<br/>class = CM>, fillcolor="#d8f7c5"] ;
272 -> 273 ;
274 [label=<potential &le; -2.214<br/>gini = 0.457<br/>samples = 38<br/>value = [2, 7, 27, 0, 0, 0, 1, 0, 0, 1]<br/>class = CM>, fillcolor="#aaee7f"] ;
273 -> 274 ;
275 [label=<gini = 0.0<br/>samples = 2<br/>value = [2, 0, 0, 0, 0, 0, 0, 0, 0, 0]<br/>class = CB>, fillcolor="#e58139"] ;
274 -> 275 ;
276 [label=<mentality_cumulative &le; 1.404<br/>gini = 0.398<br/>samples = 36<br/>value = [0, 7, 27, 0, 0, 0, 1, 0, 0, 1]<br/>class = CM>, fillcolor="#a4ed76"] ;
274 -> 276 ;
277 [label=<gini = 0.346<br/>samples = 34<br/>value = [0, 5, 27, 0, 0, 0, 1, 0, 0, 1]<br/>class = CM>, fillcolor="#9beb69"] ;
276 -> 277 ;
278 [label=<gini = 0.0<br/>samples = 2<br/>value = [0, 2, 0, 0, 0, 0, 0, 0, 0, 0]<br/>class = CF>, fillcolor="#e2e539"] ;
276 -> 278 ;
279 [label=<physic &le; 0.258<br/>gini = 0.789<br/>samples = 41<br/>value = [0, 11, 9, 0, 0, 0, 8, 0, 5, 8]<br/>class = CF>, fillcolor="#fdfdf3"] ;
273 -> 279 ;
280 [label=<skill_cumulative &le; 0.823<br/>gini = 0.684<br/>samples = 15<br/>value = [0, 0, 5, 0, 0, 0, 6, 0, 1, 3]<br/>class = LM>, fillcolor="#ebebfc"] ;
279 -> 280 ;
281 [label=<gini = 0.568<br/>samples = 9<br/>value = [0, 0, 1, 0, 0, 0, 5, 0, 0, 3]<br/>class = LM>, fillcolor="#bebdf6"] ;
280 -> 281 ;
282 [label=<gini = 0.5<br/>samples = 6<br/>value = [0, 0, 4, 0, 0, 0, 1, 0, 1, 0]<br/>class = CM>, fillcolor="#b0ef88"] ;
280 -> 282 ;
283 [label=<goalkeeping_cumulative &le; -0.356<br/>gini = 0.731<br/>samples = 26<br/>value = [0, 11, 4, 0, 0, 0, 2, 0, 4, 5]<br/>class = CF>, fillcolor="#f7f8c6"] ;
279 -> 283 ;
284 [label=<gini = 0.408<br/>samples = 7<br/>value = [0, 2, 0, 0, 0, 0, 0, 0, 0, 5]<br/>class = RM>, fillcolor="#ef889b"] ;
283 -> 284 ;
285 [label=<gini = 0.676<br/>samples = 19<br/>value = [0, 9, 4, 0, 0, 0, 2, 0, 4, 0]<br/>class = CF>, fillcolor="#f5f6bd"] ;
283 -> 285 ;
286 [label=<mentality_cumulative &le; 0.023<br/>gini = 0.334<br/>samples = 100<br/>value = [0.0, 81.0, 7.0, 0.0, 0.0, 1.0, 5.0, 0.0, 1.0, 5.0]<br/>class = CF>, fillcolor="#e8ea61"] ;
272 -> 286 ;
287 [label=<physic &le; 0.67<br/>gini = 0.444<br/>samples = 3<br/>value = [0, 0, 1, 0, 0, 0, 0, 0, 0, 2]<br/>class = RM>, fillcolor="#f29cac"] ;
286 -> 287 ;
288 [label=<gini = 0.0<br/>samples = 2<br/>value = [0, 0, 0, 0, 0, 0, 0, 0, 0, 2]<br/>class = RM>, fillcolor="#e53958"] ;
287 -> 288 ;
289 [label=<gini = 0.0<br/>samples = 1<br/>value = [0, 0, 1, 0, 0, 0, 0, 0, 0, 0]<br/>class = CM>, fillcolor="#7be539"] ;
287 -> 289 ;
290 [label=<skill_cumulative &le; 1.476<br/>gini = 0.295<br/>samples = 97<br/>value = [0, 81, 6, 0, 0, 1, 5, 0, 1, 3]<br/>class = CF>, fillcolor="#e7ea5c"] ;
286 -> 290 ;
291 [label=<defending &le; 0.109<br/>gini = 0.252<br/>samples = 94<br/>value = [0, 81, 4, 0, 0, 1, 5, 0, 1, 2]<br/>class = CF>, fillcolor="#e6e956"] ;
290 -> 291 ;
292 [label=<gini = 0.237<br/>samples = 93<br/>value = [0, 81, 4, 0, 0, 1, 4, 0, 1, 2]<br/>class = CF>, fillcolor="#e6e954"] ;
291 -> 292 ;
293 [label=<gini = 0.0<br/>samples = 1<br/>value = [0, 0, 0, 0, 0, 0, 1, 0, 0, 0]<br/>class = LM>, fillcolor="#3c39e5"] ;
291 -> 293 ;
294 [label=<power_cumulative &le; 1.319<br/>gini = 0.444<br/>samples = 3<br/>value = [0, 0, 2, 0, 0, 0, 0, 0, 0, 1]<br/>class = CM>, fillcolor="#bdf29c"] ;
290 -> 294 ;
295 [label=<gini = 0.0<br/>samples = 1<br/>value = [0, 0, 0, 0, 0, 0, 0, 0, 0, 1]<br/>class = RM>, fillcolor="#e53958"] ;
294 -> 295 ;
296 [label=<gini = 0.0<br/>samples = 2<br/>value = [0, 0, 2, 0, 0, 0, 0, 0, 0, 0]<br/>class = CM>, fillcolor="#7be539"] ;
294 -> 296 ;
297 [label=<potential &le; -1.189<br/>gini = 0.764<br/>samples = 392<br/>value = [0.0, 126.0, 13.0, 0.0, 0.0, 113.0, 31.0, 0.0, 72.0<br/>37.0]<br/>class = CF>, fillcolor="#fefef6"] ;
203 -> 297 ;
298 [label=<power_cumulative &le; -0.685<br/>gini = 0.332<br/>samples = 68<br/>value = [0, 3, 0, 0, 0, 55, 2, 0, 7, 1]<br/>class = LF>, fillcolor="#63b2eb"] ;
297 -> 298 ;
299 [label=<gini = 0.0<br/>samples = 4<br/>value = [0, 0, 0, 0, 0, 0, 0, 0, 4, 0]<br/>class = RF>, fillcolor="#e539c0"] ;
298 -> 299 ;
300 [label=<attacking_cumulative &le; 0.497<br/>gini = 0.256<br/>samples = 64<br/>value = [0, 3, 0, 0, 0, 55, 2, 0, 3, 1]<br/>class = LF>, fillcolor="#56abe9"] ;
298 -> 300 ;
301 [label=<movement_cumulative &le; 0.883<br/>gini = 0.615<br/>samples = 19<br/>value = [0, 3, 0, 0, 0, 11, 2, 0, 2, 1]<br/>class = LF>, fillcolor="#9ccef2"] ;
300 -> 301 ;
302 [label=<potential &le; -1.662<br/>gini = 0.72<br/>samples = 5<br/>value = [0, 1, 0, 0, 0, 0, 2, 0, 1, 1]<br/>class = LM>, fillcolor="#cecef8"] ;
301 -> 302 ;
303 [label=<mentality_cumulative &le; -0.259<br/>gini = 0.667<br/>samples = 3<br/>value = [0, 1, 0, 0, 0, 0, 0, 0, 1, 1]<br/>class = CF>, fillcolor="#ffffff"] ;
302 -> 303 ;
304 [label=<gini = 0.0<br/>samples = 1<br/>value = [0, 0, 0, 0, 0, 0, 0, 0, 0, 1]<br/>class = RM>, fillcolor="#e53958"] ;
303 -> 304 ;
305 [label=<gini = 0.5<br/>samples = 2<br/>value = [0, 1, 0, 0, 0, 0, 0, 0, 1, 0]<br/>class = CF>, fillcolor="#ffffff"] ;
303 -> 305 ;
306 [label=<gini = 0.0<br/>samples = 2<br/>value = [0, 0, 0, 0, 0, 0, 2, 0, 0, 0]<br/>class = LM>, fillcolor="#3c39e5"] ;
302 -> 306 ;
307 [label=<goalkeeping_cumulative &le; -0.395<br/>gini = 0.357<br/>samples = 14<br/>value = [0, 2, 0, 0, 0, 11, 0, 0, 1, 0]<br/>class = LF>, fillcolor="#6bb6ec"] ;
301 -> 307 ;
308 [label=<movement_cumulative &le; 1.253<br/>gini = 0.444<br/>samples = 3<br/>value = [0, 2, 0, 0, 0, 1, 0, 0, 0, 0]<br/>class = CF>, fillcolor="#f0f29c"] ;
307 -> 308 ;
309 [label=<gini = 0.0<br/>samples = 2<br/>value = [0, 2, 0, 0, 0, 0, 0, 0, 0, 0]<br/>class = CF>, fillcolor="#e2e539"] ;
308 -> 309 ;
310 [label=<gini = 0.0<br/>samples = 1<br/>value = [0, 0, 0, 0, 0, 1, 0, 0, 0, 0]<br/>class = LF>, fillcolor="#399de5"] ;
308 -> 310 ;
311 [label=<mentality_cumulative &le; -1.031<br/>gini = 0.165<br/>samples = 11<br/>value = [0, 0, 0, 0, 0, 10, 0, 0, 1, 0]<br/>class = LF>, fillcolor="#4da7e8"] ;
307 -> 311 ;
312 [label=<gini = 0.0<br/>samples = 1<br/>value = [0, 0, 0, 0, 0, 0, 0, 0, 1, 0]<br/>class = RF>, fillcolor="#e539c0"] ;
311 -> 312 ;
313 [label=<gini = 0.0<br/>samples = 10<br/>value = [0, 0, 0, 0, 0, 10, 0, 0, 0, 0]<br/>class = LF>, fillcolor="#399de5"] ;
311 -> 313 ;
314 [label=<potential &le; -1.346<br/>gini = 0.043<br/>samples = 45<br/>value = [0, 0, 0, 0, 0, 44, 0, 0, 1, 0]<br/>class = LF>, fillcolor="#3d9fe6"] ;
300 -> 314 ;
315 [label=<gini = 0.0<br/>samples = 41<br/>value = [0, 0, 0, 0, 0, 41, 0, 0, 0, 0]<br/>class = LF>, fillcolor="#399de5"] ;
314 -> 315 ;
316 [label=<movement_cumulative &le; 1.345<br/>gini = 0.375<br/>samples = 4<br/>value = [0, 0, 0, 0, 0, 3, 0, 0, 1, 0]<br/>class = LF>, fillcolor="#7bbeee"] ;
314 -> 316 ;
317 [label=<gini = 0.0<br/>samples = 1<br/>value = [0, 0, 0, 0, 0, 0, 0, 0, 1, 0]<br/>class = RF>, fillcolor="#e539c0"] ;
316 -> 317 ;
318 [label=<gini = 0.0<br/>samples = 3<br/>value = [0, 0, 0, 0, 0, 3, 0, 0, 0, 0]<br/>class = LF>, fillcolor="#399de5"] ;
316 -> 318 ;
319 [label=<power_cumulative &le; 0.031<br/>gini = 0.762<br/>samples = 324<br/>value = [0, 123, 13, 0, 0, 58, 29, 0, 65, 36]<br/>class = CF>, fillcolor="#f9f9d3"] ;
297 -> 319 ;
320 [label=<defending &le; -1.18<br/>gini = 0.422<br/>samples = 51<br/>value = [0.0, 1.0, 2.0, 0.0, 0.0, 7.0, 2.0, 0.0, 38.0, 1.0]<br/>class = RF>, fillcolor="#ed74d3"] ;
319 -> 320 ;
321 [label=<gini = 0.0<br/>samples = 3<br/>value = [0, 0, 0, 0, 0, 3, 0, 0, 0, 0]<br/>class = LF>, fillcolor="#399de5"] ;
320 -> 321 ;
322 [label=<preferred_foot_Right &le; -0.588<br/>gini = 0.362<br/>samples = 48<br/>value = [0, 1, 2, 0, 0, 4, 2, 0, 38, 1]<br/>class = RF>, fillcolor="#eb66ce"] ;
320 -> 322 ;
323 [label=<skill_cumulative &le; -0.227<br/>gini = 0.074<br/>samples = 26<br/>value = [0, 0, 0, 0, 0, 1, 0, 0, 25, 0]<br/>class = RF>, fillcolor="#e641c3"] ;
322 -> 323 ;
324 [label=<gini = 0.0<br/>samples = 1<br/>value = [0, 0, 0, 0, 0, 1, 0, 0, 0, 0]<br/>class = LF>, fillcolor="#399de5"] ;
323 -> 324 ;
325 [label=<gini = 0.0<br/>samples = 25<br/>value = [0, 0, 0, 0, 0, 0, 0, 0, 25, 0]<br/>class = RF>, fillcolor="#e539c0"] ;
323 -> 325 ;
326 [label=<attacking_cumulative &le; 0.535<br/>gini = 0.612<br/>samples = 22<br/>value = [0, 1, 2, 0, 0, 3, 2, 0, 13, 1]<br/>class = RF>, fillcolor="#f197de"] ;
322 -> 326 ;
327 [label=<gini = 0.0<br/>samples = 6<br/>value = [0, 0, 0, 0, 0, 0, 0, 0, 6, 0]<br/>class = RF>, fillcolor="#e539c0"] ;
326 -> 327 ;
328 [label=<weight_kg &le; 0.639<br/>gini = 0.734<br/>samples = 16<br/>value = [0, 1, 2, 0, 0, 3, 2, 0, 7, 1]<br/>class = RF>, fillcolor="#f7c2ec"] ;
326 -> 328 ;
329 [label=<gini = 0.781<br/>samples = 8<br/>value = [0, 0, 2, 0, 0, 2, 2, 0, 1, 1]<br/>class = CM>, fillcolor="#ffffff"] ;
328 -> 329 ;
330 [label=<gini = 0.406<br/>samples = 8<br/>value = [0, 1, 0, 0, 0, 1, 0, 0, 6, 0]<br/>class = RF>, fillcolor="#ec72d2"] ;
328 -> 330 ;
331 [label=<defending &le; -1.199<br/>gini = 0.728<br/>samples = 273<br/>value = [0, 122, 11, 0, 0, 51, 27, 0, 27, 35]<br/>class = CF>, fillcolor="#f6f7c0"] ;
319 -> 331 ;
332 [label=<gini = 0.0<br/>samples = 14<br/>value = [0, 0, 0, 0, 0, 14, 0, 0, 0, 0]<br/>class = LF>, fillcolor="#399de5"] ;
331 -> 332 ;
333 [label=<physic &le; 0.571<br/>gini = 0.716<br/>samples = 259<br/>value = [0, 122, 11, 0, 0, 37, 27, 0, 27, 35]<br/>class = CF>, fillcolor="#f4f5b3"] ;
331 -> 333 ;
334 [label=<weight_kg &le; 1.342<br/>gini = 0.79<br/>samples = 151<br/>value = [0, 49, 7, 0, 0, 29, 19, 0, 20, 27]<br/>class = CF>, fillcolor="#fafbdf"] ;
333 -> 334 ;
335 [label=<defending &le; -0.703<br/>gini = 0.78<br/>samples = 136<br/>value = [0, 48, 7, 0, 0, 20, 18, 0, 16, 27]<br/>class = CF>, fillcolor="#f9fad9"] ;
334 -> 335 ;
336 [label=<gini = 0.62<br/>samples = 42<br/>value = [0, 24, 0, 0, 0, 7, 5, 0, 2, 4]<br/>class = CF>, fillcolor="#f1f29f"] ;
335 -> 336 ;
337 [label=<gini = 0.809<br/>samples = 94<br/>value = [0.0, 24.0, 7.0, 0.0, 0.0, 13.0, 13.0, 0.0, 14.0<br/>23.0]<br/>class = CF>, fillcolor="#fffffc"] ;
335 -> 337 ;
338 [label=<potential &le; 1.255<br/>gini = 0.56<br/>samples = 15<br/>value = [0, 1, 0, 0, 0, 9, 1, 0, 4, 0]<br/>class = LF>, fillcolor="#a5d2f3"] ;
334 -> 338 ;
339 [label=<gini = 0.417<br/>samples = 12<br/>value = [0, 1, 0, 0, 0, 9, 1, 0, 1, 0]<br/>class = LF>, fillcolor="#6fb8ec"] ;
338 -> 339 ;
340 [label=<gini = 0.0<br/>samples = 3<br/>value = [0, 0, 0, 0, 0, 0, 0, 0, 3, 0]<br/>class = RF>, fillcolor="#e539c0"] ;
338 -> 340 ;
341 [label=<power_cumulative &le; 0.557<br/>gini = 0.521<br/>samples = 108<br/>value = [0, 73, 4, 0, 0, 8, 8, 0, 7, 8]<br/>class = CF>, fillcolor="#ecee7e"] ;
333 -> 341 ;
342 [label=<physic &le; 0.734<br/>gini = 0.5<br/>samples = 4<br/>value = [0, 0, 0, 0, 0, 2, 0, 0, 2, 0]<br/>class = LF>, fillcolor="#ffffff"] ;
341 -> 342 ;
343 [label=<gini = 0.0<br/>samples = 2<br/>value = [0, 0, 0, 0, 0, 0, 0, 0, 2, 0]<br/>class = RF>, fillcolor="#e539c0"] ;
342 -> 343 ;
344 [label=<gini = 0.0<br/>samples = 2<br/>value = [0, 0, 0, 0, 0, 2, 0, 0, 0, 0]<br/>class = LF>, fillcolor="#399de5"] ;
342 -> 344 ;
345 [label=<power_cumulative &le; 1.319<br/>gini = 0.488<br/>samples = 104<br/>value = [0, 73, 4, 0, 0, 6, 8, 0, 5, 8]<br/>class = CF>, fillcolor="#ebed79"] ;
341 -> 345 ;
346 [label=<gini = 0.664<br/>samples = 34<br/>value = [0, 18, 2, 0, 0, 2, 2, 0, 4, 6]<br/>class = CF>, fillcolor="#f3f4aa"] ;
345 -> 346 ;
347 [label=<gini = 0.37<br/>samples = 70<br/>value = [0, 55, 2, 0, 0, 4, 6, 0, 1, 2]<br/>class = CF>, fillcolor="#e9eb67"] ;
345 -> 347 ;
348 [label=<movement_cumulative &le; -0.116<br/>gini = 0.709<br/>samples = 7745<br/>value = [3566, 67, 1546, 0, 1088, 26, 176, 1042, 76, 158]<br/>class = CB>, fillcolor="#f7d6be"] ;
2 -> 348 ;
349 [label=<attacking_cumulative &le; 0.153<br/>gini = 0.376<br/>samples = 3049<br/>value = [2374, 9, 342, 0, 166, 0, 7, 142, 3, 6]<br/>class = CB>, fillcolor="#eba06a"] ;
348 -> 349 ;
350 [label=<physic &le; 0.052<br/>gini = 0.276<br/>samples = 2488<br/>value = [2106.0, 2.0, 115.0, 0.0, 141.0, 0.0, 2.0, 121.0, 0.0<br/>1.0]<br/>class = CB>, fillcolor="#e99659"] ;
349 -> 350 ;
351 [label=<preferred_foot_Right &le; -0.588<br/>gini = 0.693<br/>samples = 331<br/>value = [151, 0, 57, 0, 71, 0, 2, 50, 0, 0]<br/>class = CB>, fillcolor="#f7d8c2"] ;
350 -> 351 ;
352 [label=<movement_cumulative &le; -0.74<br/>gini = 0.491<br/>samples = 91<br/>value = [24, 0, 6, 0, 60, 0, 1, 0, 0, 0]<br/>class = LB>, fillcolor="#95f1e0"] ;
351 -> 352 ;
353 [label=<gini = 0.0<br/>samples = 12<br/>value = [12, 0, 0, 0, 0, 0, 0, 0, 0, 0]<br/>class = CB>, fillcolor="#e58139"] ;
352 -> 353 ;
354 [label=<attacking_cumulative &le; -0.075<br/>gini = 0.394<br/>samples = 79<br/>value = [12.0, 0.0, 6.0, 0.0, 60.0, 0.0, 1.0, 0.0, 0.0, 0.0]<br/>class = LB>, fillcolor="#71ecd5"] ;
352 -> 354 ;
355 [label=<height_cm &le; 0.496<br/>gini = 0.219<br/>samples = 65<br/>value = [7, 0, 1, 0, 57, 0, 0, 0, 0, 0]<br/>class = LB>, fillcolor="#54e9cd"] ;
354 -> 355 ;
356 [label=<attacking_cumulative &le; -0.523<br/>gini = 0.128<br/>samples = 59<br/>value = [3, 0, 1, 0, 55, 0, 0, 0, 0, 0]<br/>class = LB>, fillcolor="#47e7c9"] ;
355 -> 356 ;
357 [label=<gini = 0.444<br/>samples = 6<br/>value = [2, 0, 0, 0, 4, 0, 0, 0, 0, 0]<br/>class = LB>, fillcolor="#9cf2e2"] ;
356 -> 357 ;
358 [label=<gini = 0.073<br/>samples = 53<br/>value = [1, 0, 1, 0, 51, 0, 0, 0, 0, 0]<br/>class = LB>, fillcolor="#41e6c7"] ;
356 -> 358 ;
359 [label=<defending &le; 0.516<br/>gini = 0.444<br/>samples = 6<br/>value = [4, 0, 0, 0, 2, 0, 0, 0, 0, 0]<br/>class = CB>, fillcolor="#f2c09c"] ;
355 -> 359 ;
360 [label=<gini = 0.0<br/>samples = 2<br/>value = [0, 0, 0, 0, 2, 0, 0, 0, 0, 0]<br/>class = LB>, fillcolor="#39e5c5"] ;
359 -> 360 ;
361 [label=<gini = 0.0<br/>samples = 4<br/>value = [4, 0, 0, 0, 0, 0, 0, 0, 0, 0]<br/>class = CB>, fillcolor="#e58139"] ;
359 -> 361 ;
362 [label=<power_cumulative &le; -0.505<br/>gini = 0.694<br/>samples = 14<br/>value = [5, 0, 5, 0, 3, 0, 1, 0, 0, 0]<br/>class = CB>, fillcolor="#ffffff"] ;
354 -> 362 ;
363 [label=<defending &le; 0.425<br/>gini = 0.568<br/>samples = 9<br/>value = [0, 0, 5, 0, 3, 0, 1, 0, 0, 0]<br/>class = CM>, fillcolor="#d3f6bd"] ;
362 -> 363 ;
364 [label=<gini = 0.0<br/>samples = 5<br/>value = [0, 0, 5, 0, 0, 0, 0, 0, 0, 0]<br/>class = CM>, fillcolor="#7be539"] ;
363 -> 364 ;
365 [label=<gini = 0.375<br/>samples = 4<br/>value = [0, 0, 0, 0, 3, 0, 1, 0, 0, 0]<br/>class = LB>, fillcolor="#7beed8"] ;
363 -> 365 ;
366 [label=<gini = 0.0<br/>samples = 5<br/>value = [5, 0, 0, 0, 0, 0, 0, 0, 0, 0]<br/>class = CB>, fillcolor="#e58139"] ;
362 -> 366 ;
367 [label=<attacking_cumulative &le; -0.278<br/>gini = 0.629<br/>samples = 240<br/>value = [127, 0, 51, 0, 11, 0, 1, 50, 0, 0]<br/>class = CB>, fillcolor="#f5ccaf"] ;
351 -> 367 ;
368 [label=<movement_cumulative &le; -0.441<br/>gini = 0.422<br/>samples = 135<br/>value = [98, 0, 1, 0, 6, 0, 0, 30, 0, 0]<br/>class = CB>, fillcolor="#eead7f"] ;
367 -> 368 ;
369 [label=<skill_cumulative &le; -0.911<br/>gini = 0.231<br/>samples = 94<br/>value = [82.0, 0.0, 1.0, 0.0, 3.0, 0.0, 0.0, 8.0, 0.0, 0.0]<br/>class = CB>, fillcolor="#e99355"] ;
368 -> 369 ;
370 [label=<attacking_cumulative &le; -0.497<br/>gini = 0.061<br/>samples = 64<br/>value = [62, 0, 0, 0, 2, 0, 0, 0, 0, 0]<br/>class = CB>, fillcolor="#e6853f"] ;
369 -> 370 ;
371 [label=<gini = 0.032<br/>samples = 62<br/>value = [61, 0, 0, 0, 1, 0, 0, 0, 0, 0]<br/>class = CB>, fillcolor="#e5833c"] ;
370 -> 371 ;
372 [label=<gini = 0.5<br/>samples = 2<br/>value = [1, 0, 0, 0, 1, 0, 0, 0, 0, 0]<br/>class = CB>, fillcolor="#ffffff"] ;
370 -> 372 ;
373 [label=<skill_cumulative &le; -0.899<br/>gini = 0.482<br/>samples = 30<br/>value = [20, 0, 1, 0, 1, 0, 0, 8, 0, 0]<br/>class = CB>, fillcolor="#f1ba93"] ;
369 -> 373 ;
374 [label=<gini = 0.0<br/>samples = 3<br/>value = [0, 0, 0, 0, 0, 0, 0, 3, 0, 0]<br/>class = RB>, fillcolor="#a339e5"] ;
373 -> 374 ;
375 [label=<gini = 0.414<br/>samples = 27<br/>value = [20, 0, 1, 0, 1, 0, 0, 5, 0, 0]<br/>class = CB>, fillcolor="#eda978"] ;
373 -> 375 ;
376 [label=<power_cumulative &le; -1.159<br/>gini = 0.554<br/>samples = 41<br/>value = [16, 0, 0, 0, 3, 0, 0, 22, 0, 0]<br/>class = RB>, fillcolor="#e9cff9"] ;
368 -> 376 ;
377 [label=<skill_cumulative &le; -0.471<br/>gini = 0.471<br/>samples = 29<br/>value = [6, 0, 0, 0, 3, 0, 0, 20, 0, 0]<br/>class = RB>, fillcolor="#c786ef"] ;
376 -> 377 ;
378 [label=<gini = 0.382<br/>samples = 26<br/>value = [3, 0, 0, 0, 3, 0, 0, 20, 0, 0]<br/>class = RB>, fillcolor="#bb6dec"] ;
377 -> 378 ;
379 [label=<gini = 0.0<br/>samples = 3<br/>value = [3, 0, 0, 0, 0, 0, 0, 0, 0, 0]<br/>class = CB>, fillcolor="#e58139"] ;
377 -> 379 ;
380 [label=<power_cumulative &le; -0.661<br/>gini = 0.278<br/>samples = 12<br/>value = [10, 0, 0, 0, 0, 0, 0, 2, 0, 0]<br/>class = CB>, fillcolor="#ea9a61"] ;
376 -> 380 ;
381 [label=<gini = 0.165<br/>samples = 11<br/>value = [10, 0, 0, 0, 0, 0, 0, 1, 0, 0]<br/>class = CB>, fillcolor="#e88e4d"] ;
380 -> 381 ;
382 [label=<gini = 0.0<br/>samples = 1<br/>value = [0, 0, 0, 0, 0, 0, 0, 1, 0, 0]<br/>class = RB>, fillcolor="#a339e5"] ;
380 -> 382 ;
383 [label=<skill_cumulative &le; -0.409<br/>gini = 0.658<br/>samples = 105<br/>value = [29.0, 0.0, 50.0, 0.0, 5.0, 0.0, 1.0, 20.0, 0.0, 0.0]<br/>class = CM>, fillcolor="#dbf8c8"] ;
367 -> 383 ;
384 [label=<defending &le; 0.651<br/>gini = 0.531<br/>samples = 14<br/>value = [0, 0, 1, 0, 3, 0, 1, 9, 0, 0]<br/>class = RB>, fillcolor="#cd93f1"] ;
383 -> 384 ;
385 [label=<attacking_cumulative &le; -0.02<br/>gini = 0.417<br/>samples = 12<br/>value = [0, 0, 1, 0, 1, 0, 1, 9, 0, 0]<br/>class = RB>, fillcolor="#bc6fec"] ;
384 -> 385 ;
386 [label=<gini = 0.18<br/>samples = 10<br/>value = [0, 0, 0, 0, 1, 0, 0, 9, 0, 0]<br/>class = RB>, fillcolor="#ad4fe8"] ;
385 -> 386 ;
387 [label=<gini = 0.5<br/>samples = 2<br/>value = [0, 0, 1, 0, 0, 0, 1, 0, 0, 0]<br/>class = CM>, fillcolor="#ffffff"] ;
385 -> 387 ;
388 [label=<gini = 0.0<br/>samples = 2<br/>value = [0, 0, 0, 0, 2, 0, 0, 0, 0, 0]<br/>class = LB>, fillcolor="#39e5c5"] ;
384 -> 388 ;
389 [label=<defending &le; 0.29<br/>gini = 0.593<br/>samples = 91<br/>value = [29.0, 0.0, 49.0, 0.0, 2.0, 0.0, 0.0, 11.0, 0.0, 0.0]<br/>class = CM>, fillcolor="#d4f7bf"] ;
383 -> 389 ;
390 [label=<goalkeeping_cumulative &le; -0.408<br/>gini = 0.211<br/>samples = 25<br/>value = [3, 0, 22, 0, 0, 0, 0, 0, 0, 0]<br/>class = CM>, fillcolor="#8de954"] ;
389 -> 390 ;
391 [label=<gini = 0.0<br/>samples = 2<br/>value = [2, 0, 0, 0, 0, 0, 0, 0, 0, 0]<br/>class = CB>, fillcolor="#e58139"] ;
390 -> 391 ;
392 [label=<gini = 0.083<br/>samples = 23<br/>value = [1, 0, 22, 0, 0, 0, 0, 0, 0, 0]<br/>class = CM>, fillcolor="#81e642"] ;
390 -> 392 ;
393 [label=<attacking_cumulative &le; -0.057<br/>gini = 0.649<br/>samples = 66<br/>value = [26, 0, 27, 0, 2, 0, 0, 11, 0, 0]<br/>class = CM>, fillcolor="#fcfefa"] ;
389 -> 393 ;
394 [label=<gini = 0.537<br/>samples = 18<br/>value = [10, 0, 1, 0, 0, 0, 0, 7, 0, 0]<br/>class = CB>, fillcolor="#f8ddc9"] ;
393 -> 394 ;
395 [label=<gini = 0.587<br/>samples = 48<br/>value = [16, 0, 26, 0, 2, 0, 0, 4, 0, 0]<br/>class = CM>, fillcolor="#d6f7c1"] ;
393 -> 395 ;
396 [label=<defending &le; 0.651<br/>gini = 0.176<br/>samples = 2157<br/>value = [1955, 2, 58, 0, 70, 0, 0, 71, 0, 1]<br/>class = CB>, fillcolor="#e88d4c"] ;
350 -> 396 ;
397 [label=<attacking_cumulative &le; -0.484<br/>gini = 0.393<br/>samples = 556<br/>value = [427, 1, 45, 0, 46, 0, 0, 36, 0, 1]<br/>class = CB>, fillcolor="#eca16b"] ;
396 -> 397 ;
398 [label=<height_cm &le; -0.526<br/>gini = 0.068<br/>samples = 259<br/>value = [250, 0, 0, 0, 3, 0, 0, 6, 0, 0]<br/>class = CB>, fillcolor="#e68540"] ;
397 -> 398 ;
399 [label=<potential &le; -0.795<br/>gini = 0.49<br/>samples = 7<br/>value = [4, 0, 0, 0, 0, 0, 0, 3, 0, 0]<br/>class = CB>, fillcolor="#f8e0ce"] ;
398 -> 399 ;
400 [label=<power_cumulative &le; -0.554<br/>gini = 0.375<br/>samples = 4<br/>value = [1, 0, 0, 0, 0, 0, 0, 3, 0, 0]<br/>class = RB>, fillcolor="#c27bee"] ;
399 -> 400 ;
401 [label=<gini = 0.0<br/>samples = 3<br/>value = [0, 0, 0, 0, 0, 0, 0, 3, 0, 0]<br/>class = RB>, fillcolor="#a339e5"] ;
400 -> 401 ;
402 [label=<gini = 0.0<br/>samples = 1<br/>value = [1, 0, 0, 0, 0, 0, 0, 0, 0, 0]<br/>class = CB>, fillcolor="#e58139"] ;
400 -> 402 ;
403 [label=<gini = 0.0<br/>samples = 3<br/>value = [3, 0, 0, 0, 0, 0, 0, 0, 0, 0]<br/>class = CB>, fillcolor="#e58139"] ;
399 -> 403 ;
404 [label=<potential &le; -2.608<br/>gini = 0.047<br/>samples = 252<br/>value = [246, 0, 0, 0, 3, 0, 0, 3, 0, 0]<br/>class = CB>, fillcolor="#e6843e"] ;
398 -> 404 ;
405 [label=<gini = 0.0<br/>samples = 1<br/>value = [0, 0, 0, 0, 1, 0, 0, 0, 0, 0]<br/>class = LB>, fillcolor="#39e5c5"] ;
404 -> 405 ;
406 [label=<defending &le; 0.2<br/>gini = 0.039<br/>samples = 251<br/>value = [246, 0, 0, 0, 2, 0, 0, 3, 0, 0]<br/>class = CB>, fillcolor="#e6843d"] ;
404 -> 406 ;
407 [label=<gini = 0.32<br/>samples = 10<br/>value = [8, 0, 0, 0, 0, 0, 0, 2, 0, 0]<br/>class = CB>, fillcolor="#eca06a"] ;
406 -> 407 ;
408 [label=<gini = 0.025<br/>samples = 241<br/>value = [238, 0, 0, 0, 2, 0, 0, 1, 0, 0]<br/>class = CB>, fillcolor="#e5833b"] ;
406 -> 408 ;
409 [label=<preferred_foot_Right &le; -0.588<br/>gini = 0.591<br/>samples = 297<br/>value = [177.0, 1.0, 45.0, 0.0, 43.0, 0.0, 0.0, 30.0, 0.0<br/>1.0]<br/>class = CB>, fillcolor="#f1bd97"] ;
397 -> 409 ;
410 [label=<movement_cumulative &le; -0.59<br/>gini = 0.539<br/>samples = 70<br/>value = [27, 0, 3, 0, 39, 0, 0, 1, 0, 0]<br/>class = LB>, fillcolor="#c8f8ef"] ;
409 -> 410 ;
411 [label=<skill_cumulative &le; 0.471<br/>gini = 0.364<br/>samples = 18<br/>value = [14, 0, 1, 0, 3, 0, 0, 0, 0, 0]<br/>class = CB>, fillcolor="#eca36e"] ;
410 -> 411 ;
412 [label=<gini = 0.227<br/>samples = 16<br/>value = [14, 0, 1, 0, 1, 0, 0, 0, 0, 0]<br/>class = CB>, fillcolor="#e89253"] ;
411 -> 412 ;
413 [label=<gini = 0.0<br/>samples = 2<br/>value = [0, 0, 0, 0, 2, 0, 0, 0, 0, 0]<br/>class = LB>, fillcolor="#39e5c5"] ;
411 -> 413 ;
414 [label=<power_cumulative &le; -0.622<br/>gini = 0.456<br/>samples = 52<br/>value = [13, 0, 2, 0, 36, 0, 0, 1, 0, 0]<br/>class = LB>, fillcolor="#8af0dd"] ;
410 -> 414 ;
415 [label=<gini = 0.229<br/>samples = 24<br/>value = [1, 0, 1, 0, 21, 0, 0, 1, 0, 0]<br/>class = LB>, fillcolor="#53e8cd"] ;
414 -> 415 ;
416 [label=<gini = 0.528<br/>samples = 28<br/>value = [12, 0, 1, 0, 15, 0, 0, 0, 0, 0]<br/>class = LB>, fillcolor="#dafaf4"] ;
414 -> 416 ;
417 [label=<skill_cumulative &le; -0.208<br/>gini = 0.512<br/>samples = 227<br/>value = [150, 1, 42, 0, 4, 0, 0, 29, 0, 1]<br/>class = CB>, fillcolor="#f0b58b"] ;
409 -> 417 ;
418 [label=<power_cumulative &le; -0.593<br/>gini = 0.403<br/>samples = 129<br/>value = [97, 1, 6, 0, 2, 0, 0, 22, 0, 1]<br/>class = CB>, fillcolor="#eda774"] ;
417 -> 418 ;
419 [label=<gini = 0.518<br/>samples = 46<br/>value = [27.0, 0.0, 1.0, 0.0, 1.0, 0.0, 0.0, 17.0, 0.0, 0.0]<br/>class = CB>, fillcolor="#f6d4bb"] ;
418 -> 419 ;
420 [label=<gini = 0.281<br/>samples = 83<br/>value = [70, 1, 5, 0, 1, 0, 0, 5, 0, 1]<br/>class = CB>, fillcolor="#e9965a"] ;
418 -> 420 ;
421 [label=<defending &le; 0.38<br/>gini = 0.567<br/>samples = 98<br/>value = [53.0, 0.0, 36.0, 0.0, 2.0, 0.0, 0.0, 7.0, 0.0, 0.0]<br/>class = CB>, fillcolor="#f8dcc9"] ;
417 -> 421 ;
422 [label=<gini = 0.245<br/>samples = 14<br/>value = [2, 0, 12, 0, 0, 0, 0, 0, 0, 0]<br/>class = CM>, fillcolor="#91e95a"] ;
421 -> 422 ;
423 [label=<gini = 0.542<br/>samples = 84<br/>value = [51.0, 0.0, 24.0, 0.0, 2.0, 0.0, 0.0, 7.0, 0.0, 0.0]<br/>class = CB>, fillcolor="#f3c6a6"] ;
421 -> 423 ;
424 [label=<height_cm &le; -0.234<br/>gini = 0.088<br/>samples = 1601<br/>value = [1528.0, 1.0, 13.0, 0.0, 24.0, 0.0, 0.0, 35.0, 0.0<br/>0.0]<br/>class = CB>, fillcolor="#e68742"] ;
396 -> 424 ;
425 [label=<movement_cumulative &le; -0.186<br/>gini = 0.341<br/>samples = 111<br/>value = [89, 0, 5, 0, 5, 0, 0, 12, 0, 0]<br/>class = CB>, fillcolor="#eb9d65"] ;
424 -> 425 ;
426 [label=<attacking_cumulative &le; -0.061<br/>gini = 0.272<br/>samples = 99<br/>value = [84, 0, 5, 0, 3, 0, 0, 7, 0, 0]<br/>class = CB>, fillcolor="#e99659"] ;
425 -> 426 ;
427 [label=<potential &le; -0.243<br/>gini = 0.116<br/>samples = 65<br/>value = [61, 0, 0, 0, 0, 0, 0, 4, 0, 0]<br/>class = CB>, fillcolor="#e78946"] ;
426 -> 427 ;
428 [label=<gini = 0.04<br/>samples = 49<br/>value = [48.0, 0.0, 0.0, 0.0, 0.0, 0.0, 0.0, 1.0, 0.0, 0.0]<br/>class = CB>, fillcolor="#e6843d"] ;
427 -> 428 ;
429 [label=<gini = 0.305<br/>samples = 16<br/>value = [13, 0, 0, 0, 0, 0, 0, 3, 0, 0]<br/>class = CB>, fillcolor="#eb9e67"] ;
427 -> 429 ;
430 [label=<attacking_cumulative &le; -0.022<br/>gini = 0.505<br/>samples = 34<br/>value = [23, 0, 5, 0, 3, 0, 0, 3, 0, 0]<br/>class = CB>, fillcolor="#efb184"] ;
426 -> 430 ;
431 [label=<gini = 0.64<br/>samples = 5<br/>value = [0, 0, 2, 0, 2, 0, 0, 1, 0, 0]<br/>class = CM>, fillcolor="#ffffff"] ;
430 -> 431 ;
432 [label=<gini = 0.354<br/>samples = 29<br/>value = [23, 0, 3, 0, 1, 0, 0, 2, 0, 0]<br/>class = CB>, fillcolor="#eb9e67"] ;
430 -> 432 ;
433 [label=<physic &le; 0.601<br/>gini = 0.625<br/>samples = 12<br/>value = [5, 0, 0, 0, 2, 0, 0, 5, 0, 0]<br/>class = CB>, fillcolor="#ffffff"] ;
425 -> 433 ;
434 [label=<preferred_foot_Right &le; -0.588<br/>gini = 0.593<br/>samples = 9<br/>value = [2, 0, 0, 0, 2, 0, 0, 5, 0, 0]<br/>class = RB>, fillcolor="#d8aaf4"] ;
433 -> 434 ;
435 [label=<gini = 0.0<br/>samples = 2<br/>value = [0, 0, 0, 0, 2, 0, 0, 0, 0, 0]<br/>class = LB>, fillcolor="#39e5c5"] ;
434 -> 435 ;
436 [label=<gini = 0.408<br/>samples = 7<br/>value = [2, 0, 0, 0, 0, 0, 0, 5, 0, 0]<br/>class = RB>, fillcolor="#c888ef"] ;
434 -> 436 ;
437 [label=<gini = 0.0<br/>samples = 3<br/>value = [3, 0, 0, 0, 0, 0, 0, 0, 0, 0]<br/>class = CB>, fillcolor="#e58139"] ;
433 -> 437 ;
438 [label=<attacking_cumulative &le; -0.253<br/>gini = 0.067<br/>samples = 1490<br/>value = [1439, 1, 8, 0, 19, 0, 0, 23, 0, 0]<br/>class = CB>, fillcolor="#e68540"] ;
424 -> 438 ;
439 [label=<power_cumulative &le; -1.256<br/>gini = 0.018<br/>samples = 887<br/>value = [879, 0, 0, 0, 2, 0, 0, 6, 0, 0]<br/>class = CB>, fillcolor="#e5823b"] ;
438 -> 439 ;
440 [label=<movement_cumulative &le; -0.696<br/>gini = 0.231<br/>samples = 15<br/>value = [13, 0, 0, 0, 0, 0, 0, 2, 0, 0]<br/>class = CB>, fillcolor="#e99457"] ;
439 -> 440 ;
441 [label=<gini = 0.0<br/>samples = 13<br/>value = [13, 0, 0, 0, 0, 0, 0, 0, 0, 0]<br/>class = CB>, fillcolor="#e58139"] ;
440 -> 441 ;
442 [label=<gini = 0.0<br/>samples = 2<br/>value = [0, 0, 0, 0, 0, 0, 0, 2, 0, 0]<br/>class = RB>, fillcolor="#a339e5"] ;
440 -> 442 ;
443 [label=<power_cumulative &le; -1.1<br/>gini = 0.014<br/>samples = 872<br/>value = [866, 0, 0, 0, 2, 0, 0, 4, 0, 0]<br/>class = CB>, fillcolor="#e5823a"] ;
439 -> 443 ;
444 [label=<gini = 0.165<br/>samples = 11<br/>value = [10, 0, 0, 0, 1, 0, 0, 0, 0, 0]<br/>class = CB>, fillcolor="#e88e4d"] ;
443 -> 444 ;
445 [label=<gini = 0.012<br/>samples = 861<br/>value = [856, 0, 0, 0, 1, 0, 0, 4, 0, 0]<br/>class = CB>, fillcolor="#e5823a"] ;
443 -> 445 ;
446 [label=<potential &le; -0.873<br/>gini = 0.136<br/>samples = 603<br/>value = [560, 1, 8, 0, 17, 0, 0, 17, 0, 0]<br/>class = CB>, fillcolor="#e78a48"] ;
438 -> 446 ;
447 [label=<power_cumulative &le; -0.564<br/>gini = 0.391<br/>samples = 82<br/>value = [63, 1, 5, 0, 4, 0, 0, 9, 0, 0]<br/>class = CB>, fillcolor="#eca26d"] ;
446 -> 447 ;
448 [label=<gini = 0.444<br/>samples = 6<br/>value = [2, 0, 0, 0, 0, 0, 0, 4, 0, 0]<br/>class = RB>, fillcolor="#d19cf2"] ;
447 -> 448 ;
449 [label=<gini = 0.344<br/>samples = 76<br/>value = [61.0, 1.0, 5.0, 0.0, 4.0, 0.0, 0.0, 5.0, 0.0, 0.0]<br/>class = CB>, fillcolor="#ea9c63"] ;
447 -> 449 ;
450 [label=<power_cumulative &le; -0.934<br/>gini = 0.089<br/>samples = 521<br/>value = [497, 0, 3, 0, 13, 0, 0, 8, 0, 0]<br/>class = CB>, fillcolor="#e68742"] ;
446 -> 450 ;
451 [label=<gini = 0.0<br/>samples = 1<br/>value = [0, 0, 0, 0, 1, 0, 0, 0, 0, 0]<br/>class = LB>, fillcolor="#39e5c5"] ;
450 -> 451 ;
452 [label=<gini = 0.086<br/>samples = 520<br/>value = [497, 0, 3, 0, 12, 0, 0, 8, 0, 0]<br/>class = CB>, fillcolor="#e68742"] ;
450 -> 452 ;
453 [label=<defending &le; 0.741<br/>gini = 0.604<br/>samples = 561<br/>value = [268.0, 7.0, 227.0, 0.0, 25.0, 0.0, 5.0, 21.0, 3.0<br/>5.0]<br/>class = CB>, fillcolor="#fcf0e7"] ;
349 -> 453 ;
454 [label=<defending &le; 0.516<br/>gini = 0.467<br/>samples = 190<br/>value = [24, 6, 136, 0, 6, 0, 5, 6, 3, 4]<br/>class = CM>, fillcolor="#a6ed79"] ;
453 -> 454 ;
455 [label=<movement_cumulative &le; -0.871<br/>gini = 0.342<br/>samples = 93<br/>value = [1, 5, 75, 0, 1, 0, 3, 1, 3, 4]<br/>class = CM>, fillcolor="#96ea62"] ;
454 -> 455 ;
456 [label=<gini = 0.0<br/>samples = 3<br/>value = [0, 3, 0, 0, 0, 0, 0, 0, 0, 0]<br/>class = CF>, fillcolor="#e2e539"] ;
455 -> 456 ;
457 [label=<skill_cumulative &le; 1.622<br/>gini = 0.3<br/>samples = 90<br/>value = [1, 2, 75, 0, 1, 0, 3, 1, 3, 4]<br/>class = CM>, fillcolor="#92ea5c"] ;
455 -> 457 ;
458 [label=<potential &le; -0.873<br/>gini = 0.269<br/>samples = 88<br/>value = [1, 2, 75, 0, 1, 0, 3, 1, 1, 4]<br/>class = CM>, fillcolor="#8fe958"] ;
457 -> 458 ;
459 [label=<preferred_foot_Right &le; -0.588<br/>gini = 0.547<br/>samples = 26<br/>value = [0, 1, 17, 0, 1, 0, 2, 1, 1, 3]<br/>class = CM>, fillcolor="#afef86"] ;
458 -> 459 ;
460 [label=<gini = 0.72<br/>samples = 5<br/>value = [0, 0, 1, 0, 1, 0, 2, 0, 0, 1]<br/>class = LM>, fillcolor="#cecef8"] ;
459 -> 460 ;
461 [label=<gini = 0.404<br/>samples = 21<br/>value = [0, 1, 16, 0, 0, 0, 0, 1, 1, 2]<br/>class = CM>, fillcolor="#9eec6d"] ;
459 -> 461 ;
462 [label=<power_cumulative &le; 1.728<br/>gini = 0.124<br/>samples = 62<br/>value = [1, 1, 58, 0, 0, 0, 1, 0, 0, 1]<br/>class = CM>, fillcolor="#84e746"] ;
458 -> 462 ;
463 [label=<gini = 0.095<br/>samples = 61<br/>value = [1, 0, 58, 0, 0, 0, 1, 0, 0, 1]<br/>class = CM>, fillcolor="#82e643"] ;
462 -> 463 ;
464 [label=<gini = 0.0<br/>samples = 1<br/>value = [0, 1, 0, 0, 0, 0, 0, 0, 0, 0]<br/>class = CF>, fillcolor="#e2e539"] ;
462 -> 464 ;
465 [label=<gini = 0.0<br/>samples = 2<br/>value = [0, 0, 0, 0, 0, 0, 0, 0, 2, 0]<br/>class = RF>, fillcolor="#e539c0"] ;
457 -> 465 ;
466 [label=<attacking_cumulative &le; 0.306<br/>gini = 0.542<br/>samples = 97<br/>value = [23, 1, 61, 0, 5, 0, 2, 5, 0, 0]<br/>class = CM>, fillcolor="#bbf299"] ;
454 -> 466 ;
467 [label=<power_cumulative &le; 0.821<br/>gini = 0.643<br/>samples = 52<br/>value = [22, 0, 21, 0, 4, 0, 0, 5, 0, 0]<br/>class = CB>, fillcolor="#fefbf9"] ;
466 -> 467 ;
468 [label=<preferred_foot_Right &le; -0.588<br/>gini = 0.651<br/>samples = 45<br/>value = [15, 0, 21, 0, 4, 0, 0, 5, 0, 0]<br/>class = CM>, fillcolor="#e5fad7"] ;
467 -> 468 ;
469 [label=<potential &le; 0.072<br/>gini = 0.625<br/>samples = 8<br/>value = [2, 0, 2, 0, 4, 0, 0, 0, 0, 0]<br/>class = LB>, fillcolor="#bdf6ec"] ;
468 -> 469 ;
470 [label=<gini = 0.32<br/>samples = 5<br/>value = [1, 0, 0, 0, 4, 0, 0, 0, 0, 0]<br/>class = LB>, fillcolor="#6aecd4"] ;
469 -> 470 ;
471 [label=<gini = 0.444<br/>samples = 3<br/>value = [1, 0, 2, 0, 0, 0, 0, 0, 0, 0]<br/>class = CM>, fillcolor="#bdf29c"] ;
469 -> 471 ;
472 [label=<weight_kg &le; -0.485<br/>gini = 0.595<br/>samples = 37<br/>value = [13, 0, 19, 0, 0, 0, 0, 5, 0, 0]<br/>class = CM>, fillcolor="#def8ce"] ;
468 -> 472 ;
473 [label=<gini = 0.219<br/>samples = 8<br/>value = [0, 0, 7, 0, 0, 0, 0, 1, 0, 0]<br/>class = CM>, fillcolor="#8ee955"] ;
472 -> 473 ;
474 [label=<gini = 0.609<br/>samples = 29<br/>value = [13, 0, 12, 0, 0, 0, 0, 4, 0, 0]<br/>class = CB>, fillcolor="#fdf8f3"] ;
472 -> 474 ;
475 [label=<gini = 0.0<br/>samples = 7<br/>value = [7, 0, 0, 0, 0, 0, 0, 0, 0, 0]<br/>class = CB>, fillcolor="#e58139"] ;
467 -> 475 ;
476 [label=<mentality_cumulative &le; -0.288<br/>gini = 0.206<br/>samples = 45<br/>value = [1, 1, 40, 0, 1, 0, 2, 0, 0, 0]<br/>class = CM>, fillcolor="#8ae850"] ;
466 -> 476 ;
477 [label=<gini = 0.0<br/>samples = 1<br/>value = [0, 0, 0, 0, 1, 0, 0, 0, 0, 0]<br/>class = LB>, fillcolor="#39e5c5"] ;
476 -> 477 ;
478 [label=<potential &le; 1.491<br/>gini = 0.17<br/>samples = 44<br/>value = [1, 1, 40, 0, 0, 0, 2, 0, 0, 0]<br/>class = CM>, fillcolor="#88e74c"] ;
476 -> 478 ;
479 [label=<weight_kg &le; -1.258<br/>gini = 0.132<br/>samples = 43<br/>value = [1, 0, 40, 0, 0, 0, 2, 0, 0, 0]<br/>class = CM>, fillcolor="#85e747"] ;
478 -> 479 ;
480 [label=<gini = 0.0<br/>samples = 1<br/>value = [0, 0, 0, 0, 0, 0, 1, 0, 0, 0]<br/>class = LM>, fillcolor="#3c39e5"] ;
479 -> 480 ;
481 [label=<gini = 0.092<br/>samples = 42<br/>value = [1, 0, 40, 0, 0, 0, 1, 0, 0, 0]<br/>class = CM>, fillcolor="#81e643"] ;
479 -> 481 ;
482 [label=<gini = 0.0<br/>samples = 1<br/>value = [0, 1, 0, 0, 0, 0, 0, 0, 0, 0]<br/>class = CF>, fillcolor="#e2e539"] ;
478 -> 482 ;
483 [label=<attacking_cumulative &le; 0.539<br/>gini = 0.503<br/>samples = 371<br/>value = [244.0, 1.0, 91.0, 0.0, 19.0, 0.0, 0.0, 15.0, 0.0<br/>1.0]<br/>class = CB>, fillcolor="#f1ba93"] ;
453 -> 483 ;
484 [label=<defending &le; 1.012<br/>gini = 0.443<br/>samples = 289<br/>value = [209, 0, 48, 0, 18, 0, 0, 14, 0, 0]<br/>class = CB>, fillcolor="#eeab7b"] ;
483 -> 484 ;
485 [label=<mentality_cumulative &le; 0.741<br/>gini = 0.569<br/>samples = 133<br/>value = [78, 0, 37, 0, 10, 0, 0, 8, 0, 0]<br/>class = CB>, fillcolor="#f4c9aa"] ;
484 -> 485 ;
486 [label=<power_cumulative &le; -0.154<br/>gini = 0.524<br/>samples = 59<br/>value = [39, 0, 6, 0, 6, 0, 0, 8, 0, 0]<br/>class = CB>, fillcolor="#efb287"] ;
485 -> 486 ;
487 [label=<gini = 0.0<br/>samples = 2<br/>value = [0, 0, 0, 0, 2, 0, 0, 0, 0, 0]<br/>class = LB>, fillcolor="#39e5c5"] ;
486 -> 487 ;
488 [label=<skill_cumulative &le; 0.697<br/>gini = 0.496<br/>samples = 57<br/>value = [39, 0, 6, 0, 4, 0, 0, 8, 0, 0]<br/>class = CB>, fillcolor="#efaf82"] ;
486 -> 488 ;
489 [label=<gini = 0.434<br/>samples = 53<br/>value = [39, 0, 5, 0, 3, 0, 0, 6, 0, 0]<br/>class = CB>, fillcolor="#eda774"] ;
488 -> 489 ;
490 [label=<gini = 0.625<br/>samples = 4<br/>value = [0, 0, 1, 0, 1, 0, 0, 2, 0, 0]<br/>class = RB>, fillcolor="#e0bdf6"] ;
488 -> 490 ;
491 [label=<preferred_foot_Right &le; -0.588<br/>gini = 0.544<br/>samples = 74<br/>value = [39.0, 0.0, 31.0, 0.0, 4.0, 0.0, 0.0, 0.0, 0.0, 0.0]<br/>class = CB>, fillcolor="#fae8da"] ;
485 -> 491 ;
492 [label=<mentality_cumulative &le; 0.923<br/>gini = 0.512<br/>samples = 17<br/>value = [11, 0, 2, 0, 4, 0, 0, 0, 0, 0]<br/>class = CB>, fillcolor="#f1bb94"] ;
491 -> 492 ;
493 [label=<gini = 0.571<br/>samples = 7<br/>value = [2, 0, 1, 0, 4, 0, 0, 0, 0, 0]<br/>class = LB>, fillcolor="#b0f5e8"] ;
492 -> 493 ;
494 [label=<gini = 0.18<br/>samples = 10<br/>value = [9, 0, 1, 0, 0, 0, 0, 0, 0, 0]<br/>class = CB>, fillcolor="#e88f4f"] ;
492 -> 494 ;
495 [label=<potential &le; -0.558<br/>gini = 0.5<br/>samples = 57<br/>value = [28, 0, 29, 0, 0, 0, 0, 0, 0, 0]<br/>class = CM>, fillcolor="#fafef8"] ;
491 -> 495 ;
496 [label=<gini = 0.434<br/>samples = 22<br/>value = [7.0, 0.0, 15.0, 0.0, 0.0, 0.0, 0.0, 0.0, 0.0, 0.0]<br/>class = CM>, fillcolor="#b9f195"] ;
495 -> 496 ;
497 [label=<gini = 0.48<br/>samples = 35<br/>value = [21, 0, 14, 0, 0, 0, 0, 0, 0, 0]<br/>class = CB>, fillcolor="#f6d5bd"] ;
495 -> 497 ;
498 [label=<power_cumulative &le; -0.261<br/>gini = 0.286<br/>samples = 156<br/>value = [131, 0, 11, 0, 8, 0, 0, 6, 0, 0]<br/>class = CB>, fillcolor="#e9975b"] ;
484 -> 498 ;
499 [label=<gini = 0.0<br/>samples = 2<br/>value = [0, 0, 0, 0, 2, 0, 0, 0, 0, 0]<br/>class = LB>, fillcolor="#39e5c5"] ;
498 -> 499 ;
500 [label=<mentality_cumulative &le; 1.607<br/>gini = 0.268<br/>samples = 154<br/>value = [131, 0, 11, 0, 6, 0, 0, 6, 0, 0]<br/>class = CB>, fillcolor="#e99559"] ;
498 -> 500 ;
501 [label=<attacking_cumulative &le; 0.157<br/>gini = 0.244<br/>samples = 149<br/>value = [129, 0, 8, 0, 6, 0, 0, 6, 0, 0]<br/>class = CB>, fillcolor="#e99355"] ;
500 -> 501 ;
502 [label=<gini = 0.5<br/>samples = 2<br/>value = [0, 0, 1, 0, 1, 0, 0, 0, 0, 0]<br/>class = CM>, fillcolor="#ffffff"] ;
501 -> 502 ;
503 [label=<gini = 0.225<br/>samples = 147<br/>value = [129.0, 0.0, 7.0, 0.0, 5.0, 0.0, 0.0, 6.0, 0.0, 0.0]<br/>class = CB>, fillcolor="#e89152"] ;
501 -> 503 ;
504 [label=<goalkeeping_cumulative &le; -0.336<br/>gini = 0.48<br/>samples = 5<br/>value = [2, 0, 3, 0, 0, 0, 0, 0, 0, 0]<br/>class = CM>, fillcolor="#d3f6bd"] ;
500 -> 504 ;
505 [label=<gini = 0.0<br/>samples = 3<br/>value = [0, 0, 3, 0, 0, 0, 0, 0, 0, 0]<br/>class = CM>, fillcolor="#7be539"] ;
504 -> 505 ;
506 [label=<gini = 0.0<br/>samples = 2<br/>value = [2, 0, 0, 0, 0, 0, 0, 0, 0, 0]<br/>class = CB>, fillcolor="#e58139"] ;
504 -> 506 ;
507 [label=<defending &le; 1.283<br/>gini = 0.542<br/>samples = 82<br/>value = [35, 1, 43, 0, 1, 0, 0, 1, 0, 1]<br/>class = CM>, fillcolor="#e9fbdd"] ;
483 -> 507 ;
508 [label=<goalkeeping_cumulative &le; -0.259<br/>gini = 0.477<br/>samples = 60<br/>value = [19, 1, 39, 0, 1, 0, 0, 0, 0, 0]<br/>class = CM>, fillcolor="#bff29e"] ;
507 -> 508 ;
509 [label=<weight_kg &le; 0.218<br/>gini = 0.422<br/>samples = 55<br/>value = [15.0, 0.0, 39.0, 0.0, 1.0, 0.0, 0.0, 0.0, 0.0, 0.0]<br/>class = CM>, fillcolor="#b0ef88"] ;
508 -> 509 ;
510 [label=<movement_cumulative &le; -0.3<br/>gini = 0.5<br/>samples = 18<br/>value = [9, 0, 9, 0, 0, 0, 0, 0, 0, 0]<br/>class = CB>, fillcolor="#ffffff"] ;
509 -> 510 ;
511 [label=<gini = 0.346<br/>samples = 9<br/>value = [2, 0, 7, 0, 0, 0, 0, 0, 0, 0]<br/>class = CM>, fillcolor="#a1ec72"] ;
510 -> 511 ;
512 [label=<gini = 0.346<br/>samples = 9<br/>value = [7, 0, 2, 0, 0, 0, 0, 0, 0, 0]<br/>class = CB>, fillcolor="#eca572"] ;
510 -> 512 ;
513 [label=<mentality_cumulative &le; 0.659<br/>gini = 0.316<br/>samples = 37<br/>value = [6, 0, 30, 0, 1, 0, 0, 0, 0, 0]<br/>class = CM>, fillcolor="#99eb66"] ;
509 -> 513 ;
514 [label=<gini = 0.0<br/>samples = 1<br/>value = [0, 0, 0, 0, 1, 0, 0, 0, 0, 0]<br/>class = LB>, fillcolor="#39e5c5"] ;
513 -> 514 ;
515 [label=<gini = 0.278<br/>samples = 36<br/>value = [6, 0, 30, 0, 0, 0, 0, 0, 0, 0]<br/>class = CM>, fillcolor="#95ea61"] ;
513 -> 515 ;
516 [label=<potential &le; 1.018<br/>gini = 0.32<br/>samples = 5<br/>value = [4, 1, 0, 0, 0, 0, 0, 0, 0, 0]<br/>class = CB>, fillcolor="#eca06a"] ;
508 -> 516 ;
517 [label=<gini = 0.0<br/>samples = 4<br/>value = [4, 0, 0, 0, 0, 0, 0, 0, 0, 0]<br/>class = CB>, fillcolor="#e58139"] ;
516 -> 517 ;
518 [label=<gini = 0.0<br/>samples = 1<br/>value = [0, 1, 0, 0, 0, 0, 0, 0, 0, 0]<br/>class = CF>, fillcolor="#e2e539"] ;
516 -> 518 ;
519 [label=<potential &le; 0.703<br/>gini = 0.434<br/>samples = 22<br/>value = [16, 0, 4, 0, 0, 0, 0, 1, 0, 1]<br/>class = CB>, fillcolor="#eeab7b"] ;
507 -> 519 ;
520 [label=<potential &le; 0.545<br/>gini = 0.625<br/>samples = 4<br/>value = [0, 0, 2, 0, 0, 0, 0, 1, 0, 1]<br/>class = CM>, fillcolor="#d3f6bd"] ;
519 -> 520 ;
521 [label=<attacking_cumulative &le; 0.808<br/>gini = 0.5<br/>samples = 2<br/>value = [0, 0, 0, 0, 0, 0, 0, 1, 0, 1]<br/>class = RB>, fillcolor="#ffffff"] ;
520 -> 521 ;
522 [label=<gini = 0.0<br/>samples = 1<br/>value = [0, 0, 0, 0, 0, 0, 0, 1, 0, 0]<br/>class = RB>, fillcolor="#a339e5"] ;
521 -> 522 ;
523 [label=<gini = 0.0<br/>samples = 1<br/>value = [0, 0, 0, 0, 0, 0, 0, 0, 0, 1]<br/>class = RM>, fillcolor="#e53958"] ;
521 -> 523 ;
524 [label=<gini = 0.0<br/>samples = 2<br/>value = [0, 0, 2, 0, 0, 0, 0, 0, 0, 0]<br/>class = CM>, fillcolor="#7be539"] ;
520 -> 524 ;
525 [label=<skill_cumulative &le; 1.35<br/>gini = 0.198<br/>samples = 18<br/>value = [16, 0, 2, 0, 0, 0, 0, 0, 0, 0]<br/>class = CB>, fillcolor="#e89152"] ;
519 -> 525 ;
526 [label=<gini = 0.0<br/>samples = 15<br/>value = [15, 0, 0, 0, 0, 0, 0, 0, 0, 0]<br/>class = CB>, fillcolor="#e58139"] ;
525 -> 526 ;
527 [label=<power_cumulative &le; 1.709<br/>gini = 0.444<br/>samples = 3<br/>value = [1, 0, 2, 0, 0, 0, 0, 0, 0, 0]<br/>class = CM>, fillcolor="#bdf29c"] ;
525 -> 527 ;
528 [label=<gini = 0.0<br/>samples = 2<br/>value = [0, 0, 2, 0, 0, 0, 0, 0, 0, 0]<br/>class = CM>, fillcolor="#7be539"] ;
527 -> 528 ;
529 [label=<gini = 0.0<br/>samples = 1<br/>value = [1, 0, 0, 0, 0, 0, 0, 0, 0, 0]<br/>class = CB>, fillcolor="#e58139"] ;
527 -> 529 ;
530 [label=<preferred_foot_Right &le; -0.588<br/>gini = 0.792<br/>samples = 4696<br/>value = [1192.0, 58.0, 1204.0, 0.0, 922.0, 26.0, 169.0, 900.0<br/>73.0, 152.0]<br/>class = CM>, fillcolor="#fffffe"] ;
348 -> 530 ;
531 [label=<skill_cumulative &le; 0.886<br/>gini = 0.618<br/>samples = 1454<br/>value = [210.0, 13.0, 245.0, 0.0, 833.0, 6.0, 86.0, 9.0, 28.0<br/>24.0]<br/>class = LB>, fillcolor="#9ff2e3"] ;
530 -> 531 ;
532 [label=<defending &le; 1.328<br/>gini = 0.53<br/>samples = 1040<br/>value = [177, 7, 107, 0, 681, 2, 43, 9, 5, 9]<br/>class = LB>, fillcolor="#8bf0dd"] ;
531 -> 532 ;
533 [label=<defending &le; 0.47<br/>gini = 0.515<br/>samples = 1011<br/>value = [151, 7, 107, 0, 678, 2, 43, 9, 5, 9]<br/>class = LB>, fillcolor="#86efdb"] ;
532 -> 533 ;
534 [label=<mentality_cumulative &le; 0.105<br/>gini = 0.657<br/>samples = 179<br/>value = [1, 5, 49, 0, 90, 1, 20, 5, 3, 5]<br/>class = LB>, fillcolor="#c1f7ed"] ;
533 -> 534 ;
535 [label=<attacking_cumulative &le; 0.539<br/>gini = 0.26<br/>samples = 91<br/>value = [1, 0, 5, 0, 78, 0, 4, 2, 0, 1]<br/>class = LB>, fillcolor="#57e9ce"] ;
534 -> 535 ;
536 [label=<attacking_cumulative &le; 0.243<br/>gini = 0.21<br/>samples = 88<br/>value = [1, 0, 5, 0, 78, 0, 1, 2, 0, 1]<br/>class = LB>, fillcolor="#51e8cc"] ;
535 -> 536 ;
537 [label=<gini = 0.123<br/>samples = 78<br/>value = [0, 0, 2, 0, 73, 0, 1, 2, 0, 0]<br/>class = LB>, fillcolor="#46e7c9"] ;
536 -> 537 ;
538 [label=<gini = 0.64<br/>samples = 10<br/>value = [1, 0, 3, 0, 5, 0, 0, 0, 0, 1]<br/>class = LB>, fillcolor="#c6f8ee"] ;
536 -> 538 ;
539 [label=<gini = 0.0<br/>samples = 3<br/>value = [0, 0, 0, 0, 0, 0, 3, 0, 0, 0]<br/>class = LM>, fillcolor="#3c39e5"] ;
535 -> 539 ;
540 [label=<attacking_cumulative &le; 0.567<br/>gini = 0.691<br/>samples = 88<br/>value = [0, 5, 44, 0, 12, 1, 16, 3, 3, 4]<br/>class = CM>, fillcolor="#ccf5b2"] ;
534 -> 540 ;
541 [label=<skill_cumulative &le; 0.295<br/>gini = 0.482<br/>samples = 59<br/>value = [0, 0, 41, 0, 9, 0, 6, 2, 0, 1]<br/>class = CM>, fillcolor="#abee80"] ;
540 -> 541 ;
542 [label=<gini = 0.667<br/>samples = 21<br/>value = [0, 0, 9, 0, 7, 0, 4, 1, 0, 0]<br/>class = CM>, fillcolor="#ecfbe3"] ;
541 -> 542 ;
543 [label=<gini = 0.284<br/>samples = 38<br/>value = [0, 0, 32, 0, 2, 0, 2, 1, 0, 1]<br/>class = CM>, fillcolor="#91e95a"] ;
541 -> 543 ;
544 [label=<skill_cumulative &le; 0.76<br/>gini = 0.806<br/>samples = 29<br/>value = [0, 5, 3, 0, 3, 1, 10, 1, 3, 3]<br/>class = LM>, fillcolor="#d6d6fa"] ;
540 -> 544 ;
545 [label=<gini = 0.664<br/>samples = 17<br/>value = [0, 3, 0, 0, 2, 0, 9, 1, 1, 1]<br/>class = LM>, fillcolor="#abaaf4"] ;
544 -> 545 ;
546 [label=<gini = 0.833<br/>samples = 12<br/>value = [0, 2, 3, 0, 1, 1, 1, 0, 2, 2]<br/>class = CM>, fillcolor="#f2fceb"] ;
544 -> 546 ;
547 [label=<movement_cumulative &le; 0.306<br/>gini = 0.462<br/>samples = 832<br/>value = [150, 2, 58, 0, 588, 1, 23, 4, 2, 4]<br/>class = LB>, fillcolor="#80eeda"] ;
533 -> 547 ;
548 [label=<physic &le; 0.601<br/>gini = 0.568<br/>samples = 333<br/>value = [106, 1, 30, 0, 189, 0, 5, 2, 0, 0]<br/>class = LB>, fillcolor="#b7f5ea"] ;
547 -> 548 ;
549 [label=<mentality_cumulative &le; 0.308<br/>gini = 0.515<br/>samples = 223<br/>value = [51, 0, 22, 0, 145, 0, 3, 2, 0, 0]<br/>class = LB>, fillcolor="#93f1df"] ;
548 -> 549 ;
550 [label=<gini = 0.38<br/>samples = 147<br/>value = [29, 0, 4, 0, 112, 0, 1, 1, 0, 0]<br/>class = LB>, fillcolor="#74edd6"] ;
549 -> 550 ;
551 [label=<gini = 0.671<br/>samples = 76<br/>value = [22, 0, 18, 0, 33, 0, 2, 1, 0, 0]<br/>class = LB>, fillcolor="#d7faf3"] ;
549 -> 551 ;
552 [label=<attacking_cumulative &le; 0.138<br/>gini = 0.584<br/>samples = 110<br/>value = [55, 1, 8, 0, 44, 0, 2, 0, 0, 0]<br/>class = CB>, fillcolor="#fbeade"] ;
548 -> 552 ;
553 [label=<gini = 0.355<br/>samples = 39<br/>value = [30, 0, 0, 0, 9, 0, 0, 0, 0, 0]<br/>class = CB>, fillcolor="#eda774"] ;
552 -> 553 ;
554 [label=<gini = 0.619<br/>samples = 71<br/>value = [25, 1, 8, 0, 35, 0, 2, 0, 0, 0]<br/>class = LB>, fillcolor="#d4f9f2"] ;
552 -> 554 ;
555 [label=<power_cumulative &le; 0.577<br/>gini = 0.348<br/>samples = 499<br/>value = [44.0, 1.0, 28.0, 0.0, 399.0, 1.0, 18.0, 2.0, 2.0<br/>4.0]<br/>class = LB>, fillcolor="#65ebd2"] ;
547 -> 555 ;
556 [label=<skill_cumulative &le; -0.723<br/>gini = 0.266<br/>samples = 339<br/>value = [22, 0, 16, 0, 289, 0, 6, 1, 2, 3]<br/>class = LB>, fillcolor="#58e9ce"] ;
555 -> 556 ;
557 [label=<gini = 0.0<br/>samples = 2<br/>value = [2, 0, 0, 0, 0, 0, 0, 0, 0, 0]<br/>class = CB>, fillcolor="#e58139"] ;
556 -> 557 ;
558 [label=<gini = 0.258<br/>samples = 337<br/>value = [20, 0, 16, 0, 289, 0, 6, 1, 2, 3]<br/>class = LB>, fillcolor="#57e9ce"] ;
556 -> 558 ;
559 [label=<attacking_cumulative &le; 0.159<br/>gini = 0.497<br/>samples = 160<br/>value = [22, 1, 12, 0, 110, 1, 12, 1, 0, 1]<br/>class = LB>, fillcolor="#81eeda"] ;
555 -> 559 ;
560 [label=<gini = 0.278<br/>samples = 6<br/>value = [5, 0, 0, 0, 1, 0, 0, 0, 0, 0]<br/>class = CB>, fillcolor="#ea9a61"] ;
559 -> 560 ;
561 [label=<gini = 0.475<br/>samples = 154<br/>value = [17, 1, 12, 0, 109, 1, 12, 1, 0, 1]<br/>class = LB>, fillcolor="#7aeed8"] ;
559 -> 561 ;
562 [label=<power_cumulative &le; -0.222<br/>gini = 0.185<br/>samples = 29<br/>value = [26, 0, 0, 0, 3, 0, 0, 0, 0, 0]<br/>class = CB>, fillcolor="#e89050"] ;
532 -> 562 ;
563 [label=<gini = 0.0<br/>samples = 2<br/>value = [0, 0, 0, 0, 2, 0, 0, 0, 0, 0]<br/>class = LB>, fillcolor="#39e5c5"] ;
562 -> 563 ;
564 [label=<attacking_cumulative &le; 0.881<br/>gini = 0.071<br/>samples = 27<br/>value = [26, 0, 0, 0, 1, 0, 0, 0, 0, 0]<br/>class = CB>, fillcolor="#e68641"] ;
562 -> 564 ;
565 [label=<gini = 0.0<br/>samples = 26<br/>value = [26, 0, 0, 0, 0, 0, 0, 0, 0, 0]<br/>class = CB>, fillcolor="#e58139"] ;
564 -> 565 ;
566 [label=<gini = 0.0<br/>samples = 1<br/>value = [0, 0, 0, 0, 1, 0, 0, 0, 0, 0]<br/>class = LB>, fillcolor="#39e5c5"] ;
564 -> 566 ;
567 [label=<defending &le; 0.967<br/>gini = 0.732<br/>samples = 414<br/>value = [33, 6, 138, 0, 152, 4, 43, 0, 23, 15]<br/>class = LB>, fillcolor="#f5fefc"] ;
531 -> 567 ;
568 [label=<mentality_cumulative &le; 0.124<br/>gini = 0.726<br/>samples = 242<br/>value = [8, 6, 110, 0, 45, 4, 34, 0, 21, 14]<br/>class = CM>, fillcolor="#d3f6be"] ;
567 -> 568 ;
569 [label=<skill_cumulative &le; 1.012<br/>gini = 0.165<br/>samples = 11<br/>value = [1, 0, 0, 0, 0, 0, 0, 0, 10, 0]<br/>class = RF>, fillcolor="#e84dc6"] ;
568 -> 569 ;
570 [label=<gini = 0.0<br/>samples = 1<br/>value = [1, 0, 0, 0, 0, 0, 0, 0, 0, 0]<br/>class = CB>, fillcolor="#e58139"] ;
569 -> 570 ;
571 [label=<gini = 0.0<br/>samples = 10<br/>value = [0, 0, 0, 0, 0, 0, 0, 0, 10, 0]<br/>class = RF>, fillcolor="#e539c0"] ;
569 -> 571 ;
572 [label=<defending &le; 0.651<br/>gini = 0.706<br/>samples = 231<br/>value = [7, 6, 110, 0, 45, 4, 34, 0, 11, 14]<br/>class = CM>, fillcolor="#d1f6ba"] ;
568 -> 572 ;
573 [label=<movement_cumulative &le; 0.535<br/>gini = 0.68<br/>samples = 106<br/>value = [0, 5, 53, 0, 2, 2, 23, 0, 9, 12]<br/>class = CM>, fillcolor="#cff6b7"] ;
572 -> 573 ;
574 [label=<mentality_cumulative &le; 1.763<br/>gini = 0.341<br/>samples = 31<br/>value = [0, 1, 25, 0, 1, 0, 1, 0, 2, 1]<br/>class = CM>, fillcolor="#96ea62"] ;
573 -> 574 ;
575 [label=<gini = 0.252<br/>samples = 29<br/>value = [0, 1, 25, 0, 1, 0, 1, 0, 0, 1]<br/>class = CM>, fillcolor="#8ee955"] ;
574 -> 575 ;
576 [label=<gini = 0.0<br/>samples = 2<br/>value = [0, 0, 0, 0, 0, 0, 0, 0, 2, 0]<br/>class = RF>, fillcolor="#e539c0"] ;
574 -> 576 ;
577 [label=<physic &le; -0.085<br/>gini = 0.741<br/>samples = 75<br/>value = [0, 4, 28, 0, 1, 2, 22, 0, 7, 11]<br/>class = CM>, fillcolor="#f0fce9"] ;
573 -> 577 ;
578 [label=<gini = 0.43<br/>samples = 11<br/>value = [0, 0, 8, 0, 0, 0, 0, 0, 2, 1]<br/>class = CM>, fillcolor="#a7ee7b"] ;
577 -> 578 ;
579 [label=<gini = 0.749<br/>samples = 64<br/>value = [0, 4, 20, 0, 1, 2, 22, 0, 5, 10]<br/>class = LM>, fillcolor="#f6f6fe"] ;
577 -> 579 ;
580 [label=<mentality_cumulative &le; 1.14<br/>gini = 0.662<br/>samples = 125<br/>value = [7, 1, 57, 0, 43, 2, 11, 0, 2, 2]<br/>class = CM>, fillcolor="#e8fbdd"] ;
572 -> 580 ;
581 [label=<mentality_cumulative &le; 0.876<br/>gini = 0.558<br/>samples = 62<br/>value = [3, 0, 14, 0, 38, 0, 7, 0, 0, 0]<br/>class = LB>, fillcolor="#9cf2e2"] ;
580 -> 581 ;
582 [label=<gini = 0.313<br/>samples = 27<br/>value = [1, 0, 0, 0, 22, 0, 4, 0, 0, 0]<br/>class = LB>, fillcolor="#64ebd2"] ;
581 -> 582 ;
583 [label=<gini = 0.62<br/>samples = 35<br/>value = [2, 0, 14, 0, 16, 0, 3, 0, 0, 0]<br/>class = LB>, fillcolor="#ecfdf9"] ;
581 -> 583 ;
584 [label=<skill_cumulative &le; 1.2<br/>gini = 0.517<br/>samples = 63<br/>value = [4, 1, 43, 0, 5, 2, 4, 0, 2, 2]<br/>class = CM>, fillcolor="#a9ee7d"] ;
580 -> 584 ;
585 [label=<gini = 0.698<br/>samples = 26<br/>value = [3, 0, 13, 0, 4, 1, 2, 0, 1, 2]<br/>class = CM>, fillcolor="#c9f4ae"] ;
584 -> 585 ;
586 [label=<gini = 0.336<br/>samples = 37<br/>value = [1, 1, 30, 0, 1, 1, 2, 0, 1, 0]<br/>class = CM>, fillcolor="#95ea61"] ;
584 -> 586 ;
587 [label=<movement_cumulative &le; 0.467<br/>gini = 0.562<br/>samples = 172<br/>value = [25.0, 0.0, 28.0, 0.0, 107.0, 0.0, 9.0, 0.0, 2.0, 1.0]<br/>class = LB>, fillcolor="#92f1df"] ;
567 -> 587 ;
588 [label=<movement_cumulative &le; -0.028<br/>gini = 0.676<br/>samples = 42<br/>value = [15, 0, 11, 0, 15, 0, 0, 0, 1, 0]<br/>class = CB>, fillcolor="#ffffff"] ;
587 -> 588 ;
589 [label=<gini = 0.0<br/>samples = 5<br/>value = [5, 0, 0, 0, 0, 0, 0, 0, 0, 0]<br/>class = CB>, fillcolor="#e58139"] ;
588 -> 589 ;
590 [label=<attacking_cumulative &le; 0.584<br/>gini = 0.673<br/>samples = 37<br/>value = [10, 0, 11, 0, 15, 0, 0, 0, 1, 0]<br/>class = LB>, fillcolor="#e1fbf6"] ;
588 -> 590 ;
591 [label=<height_cm &le; 0.935<br/>gini = 0.34<br/>samples = 10<br/>value = [1, 0, 0, 0, 8, 0, 0, 0, 1, 0]<br/>class = LB>, fillcolor="#65ebd2"] ;
590 -> 591 ;
592 [label=<gini = 0.198<br/>samples = 9<br/>value = [1, 0, 0, 0, 8, 0, 0, 0, 0, 0]<br/>class = LB>, fillcolor="#52e8cc"] ;
591 -> 592 ;
593 [label=<gini = 0.0<br/>samples = 1<br/>value = [0, 0, 0, 0, 0, 0, 0, 0, 1, 0]<br/>class = RF>, fillcolor="#e539c0"] ;
591 -> 593 ;
594 [label=<goalkeeping_cumulative &le; -0.351<br/>gini = 0.656<br/>samples = 27<br/>value = [9, 0, 11, 0, 7, 0, 0, 0, 0, 0]<br/>class = CM>, fillcolor="#f0fce9"] ;
590 -> 594 ;
595 [label=<gini = 0.346<br/>samples = 9<br/>value = [2, 0, 7, 0, 0, 0, 0, 0, 0, 0]<br/>class = CM>, fillcolor="#a1ec72"] ;
594 -> 595 ;
596 [label=<gini = 0.648<br/>samples = 18<br/>value = [7, 0, 4, 0, 7, 0, 0, 0, 0, 0]<br/>class = CB>, fillcolor="#ffffff"] ;
594 -> 596 ;
597 [label=<power_cumulative &le; 1.65<br/>gini = 0.471<br/>samples = 130<br/>value = [10, 0, 17, 0, 92, 0, 9, 0, 1, 1]<br/>class = LB>, fillcolor="#7ceed9"] ;
587 -> 597 ;
598 [label=<physic &le; 0.166<br/>gini = 0.381<br/>samples = 108<br/>value = [7, 0, 8, 0, 84, 0, 7, 0, 1, 1]<br/>class = LB>, fillcolor="#69ebd3"] ;
597 -> 598 ;
599 [label=<power_cumulative &le; 0.429<br/>gini = 0.5<br/>samples = 2<br/>value = [0, 0, 0, 0, 0, 0, 1, 0, 1, 0]<br/>class = LM>, fillcolor="#ffffff"] ;
598 -> 599 ;
600 [label=<gini = 0.0<br/>samples = 1<br/>value = [0, 0, 0, 0, 0, 0, 1, 0, 0, 0]<br/>class = LM>, fillcolor="#3c39e5"] ;
599 -> 600 ;
601 [label=<gini = 0.0<br/>samples = 1<br/>value = [0, 0, 0, 0, 0, 0, 0, 0, 1, 0]<br/>class = RF>, fillcolor="#e539c0"] ;
599 -> 601 ;
602 [label=<height_cm &le; -1.695<br/>gini = 0.359<br/>samples = 106<br/>value = [7, 0, 8, 0, 84, 0, 6, 0, 0, 1]<br/>class = LB>, fillcolor="#65ebd2"] ;
598 -> 602 ;
603 [label=<gini = 0.625<br/>samples = 4<br/>value = [2, 0, 1, 0, 1, 0, 0, 0, 0, 0]<br/>class = CB>, fillcolor="#f6d5bd"] ;
602 -> 603 ;
604 [label=<gini = 0.327<br/>samples = 102<br/>value = [5.0, 0.0, 7.0, 0.0, 83.0, 0.0, 6.0, 0.0, 0.0, 1.0]<br/>class = LB>, fillcolor="#61ead1"] ;
602 -> 604 ;
605 [label=<defending &le; 1.644<br/>gini = 0.674<br/>samples = 22<br/>value = [3, 0, 9, 0, 8, 0, 2, 0, 0, 0]<br/>class = CM>, fillcolor="#f6fdf1"] ;
597 -> 605 ;
606 [label=<attacking_cumulative &le; 1.268<br/>gini = 0.587<br/>samples = 19<br/>value = [0, 0, 9, 0, 8, 0, 2, 0, 0, 0]<br/>class = CM>, fillcolor="#f3fded"] ;
605 -> 606 ;
607 [label=<gini = 0.492<br/>samples = 16<br/>value = [0, 0, 9, 0, 7, 0, 0, 0, 0, 0]<br/>class = CM>, fillcolor="#e2f9d3"] ;
606 -> 607 ;
608 [label=<gini = 0.444<br/>samples = 3<br/>value = [0, 0, 0, 0, 1, 0, 2, 0, 0, 0]<br/>class = LM>, fillcolor="#9e9cf2"] ;
606 -> 608 ;
609 [label=<gini = 0.0<br/>samples = 3<br/>value = [3, 0, 0, 0, 0, 0, 0, 0, 0, 0]<br/>class = CB>, fillcolor="#e58139"] ;
605 -> 609 ;
610 [label=<attacking_cumulative &le; 0.395<br/>gini = 0.742<br/>samples = 3242<br/>value = [982.0, 45.0, 959.0, 0.0, 89.0, 20.0, 83.0, 891.0, 45.0<br/>128.0]<br/>class = CB>, fillcolor="#fffefd"] ;
530 -> 610 ;
611 [label=<physic &le; 0.601<br/>gini = 0.669<br/>samples = 1484<br/>value = [645.0, 5.0, 232.0, 0.0, 55.0, 2.0, 14.0, 505.0, 5.0<br/>21.0]<br/>class = CB>, fillcolor="#fbede3"] ;
610 -> 611 ;
612 [label=<defending &le; 0.425<br/>gini = 0.703<br/>samples = 1002<br/>value = [293.0, 3.0, 205.0, 0.0, 51.0, 2.0, 13.0, 409.0, 5.0<br/>21.0]<br/>class = RB>, fillcolor="#f0dffb"] ;
611 -> 612 ;
613 [label=<mentality_cumulative &le; -0.207<br/>gini = 0.696<br/>samples = 211<br/>value = [24.0, 3.0, 99.0, 0.0, 6.0, 2.0, 7.0, 54.0, 4.0, 12.0]<br/>class = CM>, fillcolor="#d9f8c6"] ;
612 -> 613 ;
614 [label=<power_cumulative &le; -1.246<br/>gini = 0.581<br/>samples = 74<br/>value = [12, 0, 10, 0, 5, 0, 0, 45, 1, 1]<br/>class = RB>, fillcolor="#ce96f1"] ;
613 -> 614 ;
615 [label=<gini = 0.0<br/>samples = 14<br/>value = [0, 0, 0, 0, 0, 0, 0, 14, 0, 0]<br/>class = RB>, fillcolor="#a339e5"] ;
614 -> 615 ;
616 [label=<potential &le; -0.243<br/>gini = 0.658<br/>samples = 60<br/>value = [12.0, 0.0, 10.0, 0.0, 5.0, 0.0, 0.0, 31.0, 1.0, 1.0]<br/>class = RB>, fillcolor="#dbb1f5"] ;
614 -> 616 ;
617 [label=<gini = 0.742<br/>samples = 28<br/>value = [8, 0, 8, 0, 3, 0, 0, 8, 0, 1]<br/>class = CB>, fillcolor="#ffffff"] ;
616 -> 617 ;
618 [label=<gini = 0.459<br/>samples = 32<br/>value = [4, 0, 2, 0, 2, 0, 0, 23, 1, 0]<br/>class = RB>, fillcolor="#c179ed"] ;
616 -> 618 ;
619 [label=<skill_cumulative &le; 0.094<br/>gini = 0.556<br/>samples = 137<br/>value = [12, 3, 89, 0, 1, 2, 7, 9, 3, 11]<br/>class = CM>, fillcolor="#aeef85"] ;
613 -> 619 ;
620 [label=<movement_cumulative &le; 0.358<br/>gini = 0.756<br/>samples = 52<br/>value = [7, 2, 22, 0, 1, 1, 2, 8, 2, 7]<br/>class = CM>, fillcolor="#d5f7c0"] ;
619 -> 620 ;
621 [label=<gini = 0.588<br/>samples = 33<br/>value = [6, 0, 20, 0, 1, 1, 0, 3, 1, 1]<br/>class = CM>, fillcolor="#bbf298"] ;
620 -> 621 ;
622 [label=<gini = 0.792<br/>samples = 19<br/>value = [1, 2, 2, 0, 0, 0, 2, 5, 1, 6]<br/>class = RM>, fillcolor="#fdf1f3"] ;
620 -> 622 ;
623 [label=<potential &le; -1.346<br/>gini = 0.369<br/>samples = 85<br/>value = [5, 1, 67, 0, 0, 1, 5, 1, 1, 4]<br/>class = CM>, fillcolor="#99eb66"] ;
619 -> 623 ;
624 [label=<gini = 0.781<br/>samples = 8<br/>value = [0, 1, 2, 0, 0, 0, 2, 1, 0, 2]<br/>class = CM>, fillcolor="#ffffff"] ;
623 -> 624 ;
625 [label=<gini = 0.281<br/>samples = 77<br/>value = [5.0, 0.0, 65.0, 0.0, 0.0, 1.0, 3.0, 0.0, 1.0, 2.0]<br/>class = CM>, fillcolor="#91e95a"] ;
623 -> 625 ;
626 [label=<movement_cumulative &le; 0.481<br/>gini = 0.662<br/>samples = 791<br/>value = [269, 0, 106, 0, 45, 0, 6, 355, 1, 9]<br/>class = RB>, fillcolor="#f0defb"] ;
612 -> 626 ;
627 [label=<power_cumulative &le; -0.847<br/>gini = 0.676<br/>samples = 559<br/>value = [231.0, 0.0, 93.0, 0.0, 29.0, 0.0, 3.0, 196.0, 0.0<br/>7.0]<br/>class = CB>, fillcolor="#fcf3ec"] ;
626 -> 627 ;
628 [label=<skill_cumulative &le; -0.132<br/>gini = 0.423<br/>samples = 67<br/>value = [6, 0, 4, 0, 6, 0, 1, 50, 0, 0]<br/>class = RB>, fillcolor="#bd70ec"] ;
627 -> 628 ;
629 [label=<gini = 0.291<br/>samples = 54<br/>value = [4, 0, 0, 0, 5, 0, 0, 45, 0, 0]<br/>class = RB>, fillcolor="#b45dea"] ;
628 -> 629 ;
630 [label=<gini = 0.722<br/>samples = 13<br/>value = [2, 0, 4, 0, 1, 0, 1, 5, 0, 0]<br/>class = RB>, fillcolor="#f5e9fc"] ;
628 -> 630 ;
631 [label=<attacking_cumulative &le; 0.203<br/>gini = 0.668<br/>samples = 492<br/>value = [225, 0, 89, 0, 23, 0, 2, 146, 0, 7]<br/>class = CB>, fillcolor="#f9e2d2"] ;
627 -> 631 ;
632 [label=<gini = 0.612<br/>samples = 311<br/>value = [156.0, 0.0, 24.0, 0.0, 17.0, 0.0, 1.0, 111.0, 0.0<br/>2.0]<br/>class = CB>, fillcolor="#f9e3d2"] ;
631 -> 632 ;
633 [label=<gini = 0.686<br/>samples = 181<br/>value = [69, 0, 65, 0, 6, 0, 1, 35, 0, 5]<br/>class = CB>, fillcolor="#fefbf8"] ;
631 -> 633 ;
634 [label=<power_cumulative &le; 0.148<br/>gini = 0.495<br/>samples = 232<br/>value = [38, 0, 13, 0, 16, 0, 3, 159, 1, 2]<br/>class = RB>, fillcolor="#c684ef"] ;
626 -> 634 ;
